digraph Tree {
node [shape=box] ;
0 [label="maint <= 2.5\nentropy = 1.2\nsamples = 1554\nvalue = [58, 61, 344, 1091]"] ;
1 [label="buying <= 2.5\nentropy = 1.45\nsamples = 782\nvalue = [45, 61, 192, 484]"] ;
0 -> 1 [labeldistance=2.5, labelangle=45, headlabel="True"] ;
2 [label="lug_boot <= 1.5\nentropy = 1.658\nsamples = 381\nvalue = [45, 61, 57, 218]"] ;
1 -> 2 ;
3 [label="maint <= 1.5\nentropy = 1.361\nsamples = 132\nvalue = [0, 21, 32, 79]"] ;
2 -> 3 ;
4 [label="buying <= 1.5\nentropy = 1.379\nsamples = 64\nvalue = [0, 14, 12, 38]"] ;
3 -> 4 ;
5 [label="safety <= 2.5\nentropy = 1.408\nsamples = 33\nvalue = [0, 7, 7, 19]"] ;
4 -> 5 ;
6 [label="persons <= 3.0\nentropy = 0.918\nsamples = 21\nvalue = [0, 0, 7, 14]"] ;
5 -> 6 ;
7 [label="entropy = 0.0\nsamples = 7\nvalue = [0, 0, 0, 7]"] ;
6 -> 7 ;
8 [label="persons <= 4.5\nentropy = 1.0\nsamples = 14\nvalue = [0, 0, 7, 7]"] ;
6 -> 8 ;
9 [label="doors <= 2.5\nentropy = 1.0\nsamples = 8\nvalue = [0, 0, 4, 4]"] ;
8 -> 9 ;
10 [label="safety <= 1.5\nentropy = 1.0\nsamples = 2\nvalue = [0, 0, 1, 1]"] ;
9 -> 10 ;
11 [label="entropy = 0.0\nsamples = 1\nvalue = [0, 0, 0, 1]"] ;
10 -> 11 ;
12 [label="entropy = 0.0\nsamples = 1\nvalue = [0, 0, 1, 0]"] ;
10 -> 12 ;
13 [label="safety <= 1.5\nentropy = 1.0\nsamples = 6\nvalue = [0, 0, 3, 3]"] ;
9 -> 13 ;
14 [label="entropy = 0.0\nsamples = 3\nvalue = [0, 0, 0, 3]"] ;
13 -> 14 ;
15 [label="entropy = 0.0\nsamples = 3\nvalue = [0, 0, 3, 0]"] ;
13 -> 15 ;
16 [label="safety <= 1.5\nentropy = 1.0\nsamples = 6\nvalue = [0, 0, 3, 3]"] ;
8 -> 16 ;
17 [label="entropy = 0.0\nsamples = 2\nvalue = [0, 0, 0, 2]"] ;
16 -> 17 ;
18 [label="doors <= 2.5\nentropy = 0.811\nsamples = 4\nvalue = [0, 0, 3, 1]"] ;
16 -> 18 ;
19 [label="entropy = 0.0\nsamples = 1\nvalue = [0, 0, 0, 1]"] ;
18 -> 19 ;
20 [label="entropy = 0.0\nsamples = 3\nvalue = [0, 0, 3, 0]"] ;
18 -> 20 ;
21 [label="persons <= 3.0\nentropy = 0.98\nsamples = 12\nvalue = [0, 7, 0, 5]"] ;
5 -> 21 ;
22 [label="entropy = 0.0\nsamples = 4\nvalue = [0, 0, 0, 4]"] ;
21 -> 22 ;
23 [label="doors <= 2.5\nentropy = 0.544\nsamples = 8\nvalue = [0, 7, 0, 1]"] ;
21 -> 23 ;
24 [label="persons <= 4.5\nentropy = 1.0\nsamples = 2\nvalue = [0, 1, 0, 1]"] ;
23 -> 24 ;
25 [label="entropy = 0.0\nsamples = 1\nvalue = [0, 1, 0, 0]"] ;
24 -> 25 ;
26 [label="entropy = 0.0\nsamples = 1\nvalue = [0, 0, 0, 1]"] ;
24 -> 26 ;
27 [label="entropy = 0.0\nsamples = 6\nvalue = [0, 6, 0, 0]"] ;
23 -> 27 ;
28 [label="persons <= 3.0\nentropy = 1.342\nsamples = 31\nvalue = [0, 7, 5, 19]"] ;
4 -> 28 ;
29 [label="entropy = 0.0\nsamples = 9\nvalue = [0, 0, 0, 9]"] ;
28 -> 29 ;
30 [label="doors <= 2.5\nentropy = 1.529\nsamples = 22\nvalue = [0, 7, 5, 10]"] ;
28 -> 30 ;
31 [label="persons <= 4.5\nentropy = 1.252\nsamples = 6\nvalue = [0, 1, 1, 4]"] ;
30 -> 31 ;
32 [label="safety <= 1.5\nentropy = 1.585\nsamples = 3\nvalue = [0, 1, 1, 1]"] ;
31 -> 32 ;
33 [label="entropy = 0.0\nsamples = 1\nvalue = [0, 0, 0, 1]"] ;
32 -> 33 ;
34 [label="safety <= 2.5\nentropy = 1.0\nsamples = 2\nvalue = [0, 1, 1, 0]"] ;
32 -> 34 ;
35 [label="entropy = 0.0\nsamples = 1\nvalue = [0, 0, 1, 0]"] ;
34 -> 35 ;
36 [label="entropy = 0.0\nsamples = 1\nvalue = [0, 1, 0, 0]"] ;
34 -> 36 ;
37 [label="entropy = 0.0\nsamples = 3\nvalue = [0, 0, 0, 3]"] ;
31 -> 37 ;
38 [label="doors <= 3.5\nentropy = 1.561\nsamples = 16\nvalue = [0, 6, 4, 6]"] ;
30 -> 38 ;
39 [label="safety <= 1.5\nentropy = 1.585\nsamples = 6\nvalue = [0, 2, 2, 2]"] ;
38 -> 39 ;
40 [label="entropy = 0.0\nsamples = 2\nvalue = [0, 0, 0, 2]"] ;
39 -> 40 ;
41 [label="safety <= 2.5\nentropy = 1.0\nsamples = 4\nvalue = [0, 2, 2, 0]"] ;
39 -> 41 ;
42 [label="entropy = 0.0\nsamples = 2\nvalue = [0, 0, 2, 0]"] ;
41 -> 42 ;
43 [label="entropy = 0.0\nsamples = 2\nvalue = [0, 2, 0, 0]"] ;
41 -> 43 ;
44 [label="doors <= 4.5\nentropy = 1.522\nsamples = 10\nvalue = [0, 4, 2, 4]"] ;
38 -> 44 ;
45 [label="safety <= 1.5\nentropy = 1.522\nsamples = 5\nvalue = [0, 2, 1, 2]"] ;
44 -> 45 ;
46 [label="entropy = 0.0\nsamples = 2\nvalue = [0, 0, 0, 2]"] ;
45 -> 46 ;
47 [label="persons <= 4.5\nentropy = 0.918\nsamples = 3\nvalue = [0, 2, 1, 0]"] ;
45 -> 47 ;
48 [label="safety <= 2.5\nentropy = 1.0\nsamples = 2\nvalue = [0, 1, 1, 0]"] ;
47 -> 48 ;
49 [label="entropy = 0.0\nsamples = 1\nvalue = [0, 0, 1, 0]"] ;
48 -> 49 ;
50 [label="entropy = 0.0\nsamples = 1\nvalue = [0, 1, 0, 0]"] ;
48 -> 50 ;
51 [label="entropy = 0.0\nsamples = 1\nvalue = [0, 1, 0, 0]"] ;
47 -> 51 ;
52 [label="persons <= 4.5\nentropy = 1.522\nsamples = 5\nvalue = [0, 2, 1, 2]"] ;
44 -> 52 ;
53 [label="safety <= 1.5\nentropy = 1.585\nsamples = 3\nvalue = [0, 1, 1, 1]"] ;
52 -> 53 ;
54 [label="entropy = 0.0\nsamples = 1\nvalue = [0, 0, 0, 1]"] ;
53 -> 54 ;
55 [label="safety <= 2.5\nentropy = 1.0\nsamples = 2\nvalue = [0, 1, 1, 0]"] ;
53 -> 55 ;
56 [label="entropy = 0.0\nsamples = 1\nvalue = [0, 0, 1, 0]"] ;
55 -> 56 ;
57 [label="entropy = 0.0\nsamples = 1\nvalue = [0, 1, 0, 0]"] ;
55 -> 57 ;
58 [label="safety <= 2.0\nentropy = 1.0\nsamples = 2\nvalue = [0, 1, 0, 1]"] ;
52 -> 58 ;
59 [label="entropy = 0.0\nsamples = 1\nvalue = [0, 0, 0, 1]"] ;
58 -> 59 ;
60 [label="entropy = 0.0\nsamples = 1\nvalue = [0, 1, 0, 0]"] ;
58 -> 60 ;
61 [label="persons <= 3.0\nentropy = 1.297\nsamples = 68\nvalue = [0, 7, 20, 41]"] ;
3 -> 61 ;
62 [label="entropy = 0.0\nsamples = 22\nvalue = [0, 0, 0, 22]"] ;
61 -> 62 ;
63 [label="buying <= 1.5\nentropy = 1.463\nsamples = 46\nvalue = [0, 7, 20, 19]"] ;
61 -> 63 ;
64 [label="persons <= 4.5\nentropy = 1.564\nsamples = 22\nvalue = [0, 7, 6, 9]"] ;
63 -> 64 ;
65 [label="safety <= 1.5\nentropy = 1.585\nsamples = 12\nvalue = [0, 4, 4, 4]"] ;
64 -> 65 ;
66 [label="entropy = 0.0\nsamples = 4\nvalue = [0, 0, 0, 4]"] ;
65 -> 66 ;
67 [label="doors <= 2.5\nentropy = 1.0\nsamples = 8\nvalue = [0, 4, 4, 0]"] ;
65 -> 67 ;
68 [label="safety <= 2.5\nentropy = 1.0\nsamples = 2\nvalue = [0, 1, 1, 0]"] ;
67 -> 68 ;
69 [label="entropy = 0.0\nsamples = 1\nvalue = [0, 0, 1, 0]"] ;
68 -> 69 ;
70 [label="entropy = 0.0\nsamples = 1\nvalue = [0, 1, 0, 0]"] ;
68 -> 70 ;
71 [label="doors <= 3.5\nentropy = 1.0\nsamples = 6\nvalue = [0, 3, 3, 0]"] ;
67 -> 71 ;
72 [label="safety <= 2.5\nentropy = 1.0\nsamples = 2\nvalue = [0, 1, 1, 0]"] ;
71 -> 72 ;
73 [label="entropy = 0.0\nsamples = 1\nvalue = [0, 0, 1, 0]"] ;
72 -> 73 ;
74 [label="entropy = 0.0\nsamples = 1\nvalue = [0, 1, 0, 0]"] ;
72 -> 74 ;
75 [label="safety <= 2.5\nentropy = 1.0\nsamples = 4\nvalue = [0, 2, 2, 0]"] ;
71 -> 75 ;
76 [label="entropy = 0.0\nsamples = 2\nvalue = [0, 0, 2, 0]"] ;
75 -> 76 ;
77 [label="entropy = 0.0\nsamples = 2\nvalue = [0, 2, 0, 0]"] ;
75 -> 77 ;
78 [label="doors <= 2.5\nentropy = 1.485\nsamples = 10\nvalue = [0, 3, 2, 5]"] ;
64 -> 78 ;
79 [label="entropy = 0.0\nsamples = 3\nvalue = [0, 0, 0, 3]"] ;
78 -> 79 ;
80 [label="doors <= 4.5\nentropy = 1.557\nsamples = 7\nvalue = [0, 3, 2, 2]"] ;
78 -> 80 ;
81 [label="safety <= 1.5\nentropy = 1.585\nsamples = 6\nvalue = [0, 2, 2, 2]"] ;
80 -> 81 ;
82 [label="entropy = 0.0\nsamples = 2\nvalue = [0, 0, 0, 2]"] ;
81 -> 82 ;
83 [label="doors <= 3.5\nentropy = 1.0\nsamples = 4\nvalue = [0, 2, 2, 0]"] ;
81 -> 83 ;
84 [label="safety <= 2.5\nentropy = 1.0\nsamples = 2\nvalue = [0, 1, 1, 0]"] ;
83 -> 84 ;
85 [label="entropy = 0.0\nsamples = 1\nvalue = [0, 0, 1, 0]"] ;
84 -> 85 ;
86 [label="entropy = 0.0\nsamples = 1\nvalue = [0, 1, 0, 0]"] ;
84 -> 86 ;
87 [label="safety <= 2.5\nentropy = 1.0\nsamples = 2\nvalue = [0, 1, 1, 0]"] ;
83 -> 87 ;
88 [label="entropy = 0.0\nsamples = 1\nvalue = [0, 0, 1, 0]"] ;
87 -> 88 ;
89 [label="entropy = 0.0\nsamples = 1\nvalue = [0, 1, 0, 0]"] ;
87 -> 89 ;
90 [label="entropy = 0.0\nsamples = 1\nvalue = [0, 1, 0, 0]"] ;
80 -> 90 ;
91 [label="persons <= 4.5\nentropy = 0.98\nsamples = 24\nvalue = [0, 0, 14, 10]"] ;
63 -> 91 ;
92 [label="doors <= 2.5\nentropy = 0.918\nsamples = 12\nvalue = [0, 0, 8, 4]"] ;
91 -> 92 ;
93 [label="safety <= 1.5\nentropy = 0.918\nsamples = 3\nvalue = [0, 0, 2, 1]"] ;
92 -> 93 ;
94 [label="entropy = 0.0\nsamples = 1\nvalue = [0, 0, 0, 1]"] ;
93 -> 94 ;
95 [label="entropy = 0.0\nsamples = 2\nvalue = [0, 0, 2, 0]"] ;
93 -> 95 ;
96 [label="safety <= 1.5\nentropy = 0.918\nsamples = 9\nvalue = [0, 0, 6, 3]"] ;
92 -> 96 ;
97 [label="entropy = 0.0\nsamples = 3\nvalue = [0, 0, 0, 3]"] ;
96 -> 97 ;
98 [label="entropy = 0.0\nsamples = 6\nvalue = [0, 0, 6, 0]"] ;
96 -> 98 ;
99 [label="safety <= 1.5\nentropy = 1.0\nsamples = 12\nvalue = [0, 0, 6, 6]"] ;
91 -> 99 ;
100 [label="entropy = 0.0\nsamples = 4\nvalue = [0, 0, 0, 4]"] ;
99 -> 100 ;
101 [label="safety <= 2.5\nentropy = 0.811\nsamples = 8\nvalue = [0, 0, 6, 2]"] ;
99 -> 101 ;
102 [label="doors <= 2.5\nentropy = 0.811\nsamples = 4\nvalue = [0, 0, 3, 1]"] ;
101 -> 102 ;
103 [label="entropy = 0.0\nsamples = 1\nvalue = [0, 0, 0, 1]"] ;
102 -> 103 ;
104 [label="entropy = 0.0\nsamples = 3\nvalue = [0, 0, 3, 0]"] ;
102 -> 104 ;
105 [label="doors <= 2.5\nentropy = 0.811\nsamples = 4\nvalue = [0, 0, 3, 1]"] ;
101 -> 105 ;
106 [label="entropy = 0.0\nsamples = 1\nvalue = [0, 0, 0, 1]"] ;
105 -> 106 ;
107 [label="entropy = 0.0\nsamples = 3\nvalue = [0, 0, 3, 0]"] ;
105 -> 107 ;
108 [label="doors <= 3.5\nentropy = 1.672\nsamples = 249\nvalue = [45, 40, 25, 139]"] ;
2 -> 108 ;
109 [label="doors <= 2.5\nentropy = 1.675\nsamples = 122\nvalue = [16, 19, 18, 69]"] ;
108 -> 109 ;
110 [label="buying <= 1.5\nentropy = 1.681\nsamples = 61\nvalue = [7, 9, 11, 34]"] ;
109 -> 110 ;
111 [label="safety <= 1.5\nentropy = 1.593\nsamples = 30\nvalue = [4, 5, 3, 18]"] ;
110 -> 111 ;
112 [label="entropy = 0.0\nsamples = 10\nvalue = [0, 0, 0, 10]"] ;
111 -> 112 ;
113 [label="lug_boot <= 2.5\nentropy = 1.904\nsamples = 20\nvalue = [4, 5, 3, 8]"] ;
111 -> 113 ;
114 [label="safety <= 2.5\nentropy = 1.406\nsamples = 8\nvalue = [0, 1, 3, 4]"] ;
113 -> 114 ;
115 [label="maint <= 1.5\nentropy = 0.971\nsamples = 5\nvalue = [0, 0, 3, 2]"] ;
114 -> 115 ;
116 [label="persons <= 3.5\nentropy = 1.0\nsamples = 2\nvalue = [0, 0, 1, 1]"] ;
115 -> 116 ;
117 [label="entropy = 0.0\nsamples = 1\nvalue = [0, 0, 0, 1]"] ;
116 -> 117 ;
118 [label="entropy = 0.0\nsamples = 1\nvalue = [0, 0, 1, 0]"] ;
116 -> 118 ;
119 [label="persons <= 3.0\nentropy = 0.918\nsamples = 3\nvalue = [0, 0, 2, 1]"] ;
115 -> 119 ;
120 [label="entropy = 0.0\nsamples = 1\nvalue = [0, 0, 0, 1]"] ;
119 -> 120 ;
121 [label="entropy = 0.0\nsamples = 2\nvalue = [0, 0, 2, 0]"] ;
119 -> 121 ;
122 [label="maint <= 1.5\nentropy = 0.918\nsamples = 3\nvalue = [0, 1, 0, 2]"] ;
114 -> 122 ;
123 [label="entropy = 0.0\nsamples = 1\nvalue = [0, 0, 0, 1]"] ;
122 -> 123 ;
124 [label="persons <= 3.0\nentropy = 1.0\nsamples = 2\nvalue = [0, 1, 0, 1]"] ;
122 -> 124 ;
125 [label="entropy = 0.0\nsamples = 1\nvalue = [0, 0, 0, 1]"] ;
124 -> 125 ;
126 [label="entropy = 0.0\nsamples = 1\nvalue = [0, 1, 0, 0]"] ;
124 -> 126 ;
127 [label="persons <= 3.0\nentropy = 1.585\nsamples = 12\nvalue = [4, 4, 0, 4]"] ;
113 -> 127 ;
128 [label="entropy = 0.0\nsamples = 4\nvalue = [0, 0, 0, 4]"] ;
127 -> 128 ;
129 [label="persons <= 4.5\nentropy = 1.0\nsamples = 8\nvalue = [4, 4, 0, 0]"] ;
127 -> 129 ;
130 [label="safety <= 2.5\nentropy = 1.0\nsamples = 4\nvalue = [2, 2, 0, 0]"] ;
129 -> 130 ;
131 [label="entropy = 0.0\nsamples = 2\nvalue = [0, 2, 0, 0]"] ;
130 -> 131 ;
132 [label="entropy = 0.0\nsamples = 2\nvalue = [2, 0, 0, 0]"] ;
130 -> 132 ;
133 [label="maint <= 1.5\nentropy = 1.0\nsamples = 4\nvalue = [2, 2, 0, 0]"] ;
129 -> 133 ;
134 [label="safety <= 2.5\nentropy = 1.0\nsamples = 2\nvalue = [1, 1, 0, 0]"] ;
133 -> 134 ;
135 [label="entropy = 0.0\nsamples = 1\nvalue = [0, 1, 0, 0]"] ;
134 -> 135 ;
136 [label="entropy = 0.0\nsamples = 1\nvalue = [1, 0, 0, 0]"] ;
134 -> 136 ;
137 [label="safety <= 2.5\nentropy = 1.0\nsamples = 2\nvalue = [1, 1, 0, 0]"] ;
133 -> 137 ;
138 [label="entropy = 0.0\nsamples = 1\nvalue = [0, 1, 0, 0]"] ;
137 -> 138 ;
139 [label="entropy = 0.0\nsamples = 1\nvalue = [1, 0, 0, 0]"] ;
137 -> 139 ;
140 [label="safety <= 1.5\nentropy = 1.704\nsamples = 31\nvalue = [3, 4, 8, 16]"] ;
110 -> 140 ;
141 [label="entropy = 0.0\nsamples = 11\nvalue = [0, 0, 0, 11]"] ;
140 -> 141 ;
142 [label="safety <= 2.5\nentropy = 1.904\nsamples = 20\nvalue = [3, 4, 8, 5]"] ;
140 -> 142 ;
143 [label="maint <= 1.5\nentropy = 1.435\nsamples = 11\nvalue = [0, 2, 6, 3]"] ;
142 -> 143 ;
144 [label="lug_boot <= 2.5\nentropy = 1.522\nsamples = 5\nvalue = [0, 2, 2, 1]"] ;
143 -> 144 ;
145 [label="persons <= 3.0\nentropy = 0.918\nsamples = 3\nvalue = [0, 0, 2, 1]"] ;
144 -> 145 ;
146 [label="entropy = 0.0\nsamples = 1\nvalue = [0, 0, 0, 1]"] ;
145 -> 146 ;
147 [label="entropy = 0.0\nsamples = 2\nvalue = [0, 0, 2, 0]"] ;
145 -> 147 ;
148 [label="entropy = 0.0\nsamples = 2\nvalue = [0, 2, 0, 0]"] ;
144 -> 148 ;
149 [label="persons <= 3.0\nentropy = 0.918\nsamples = 6\nvalue = [0, 0, 4, 2]"] ;
143 -> 149 ;
150 [label="entropy = 0.0\nsamples = 2\nvalue = [0, 0, 0, 2]"] ;
149 -> 150 ;
151 [label="entropy = 0.0\nsamples = 4\nvalue = [0, 0, 4, 0]"] ;
149 -> 151 ;
152 [label="maint <= 1.5\nentropy = 1.975\nsamples = 9\nvalue = [3, 2, 2, 2]"] ;
142 -> 152 ;
153 [label="lug_boot <= 2.5\nentropy = 1.522\nsamples = 5\nvalue = [2, 2, 0, 1]"] ;
152 -> 153 ;
154 [label="persons <= 3.0\nentropy = 0.918\nsamples = 3\nvalue = [0, 2, 0, 1]"] ;
153 -> 154 ;
155 [label="entropy = 0.0\nsamples = 1\nvalue = [0, 0, 0, 1]"] ;
154 -> 155 ;
156 [label="entropy = 0.0\nsamples = 2\nvalue = [0, 2, 0, 0]"] ;
154 -> 156 ;
157 [label="entropy = 0.0\nsamples = 2\nvalue = [2, 0, 0, 0]"] ;
153 -> 157 ;
158 [label="persons <= 3.0\nentropy = 1.5\nsamples = 4\nvalue = [1, 0, 2, 1]"] ;
152 -> 158 ;
159 [label="entropy = 0.0\nsamples = 1\nvalue = [0, 0, 0, 1]"] ;
158 -> 159 ;
160 [label="persons <= 4.5\nentropy = 0.918\nsamples = 3\nvalue = [1, 0, 2, 0]"] ;
158 -> 160 ;
161 [label="entropy = 0.0\nsamples = 1\nvalue = [0, 0, 1, 0]"] ;
160 -> 161 ;
162 [label="lug_boot <= 2.5\nentropy = 1.0\nsamples = 2\nvalue = [1, 0, 1, 0]"] ;
160 -> 162 ;
163 [label="entropy = 0.0\nsamples = 1\nvalue = [0, 0, 1, 0]"] ;
162 -> 163 ;
164 [label="entropy = 0.0\nsamples = 1\nvalue = [1, 0, 0, 0]"] ;
162 -> 164 ;
165 [label="maint <= 1.5\nentropy = 1.653\nsamples = 61\nvalue = [9, 10, 7, 35]"] ;
109 -> 165 ;
166 [label="buying <= 1.5\nentropy = 1.598\nsamples = 33\nvalue = [6, 6, 2, 19]"] ;
165 -> 166 ;
167 [label="safety <= 2.5\nentropy = 1.574\nsamples = 17\nvalue = [3, 3, 1, 10]"] ;
166 -> 167 ;
168 [label="persons <= 3.0\nentropy = 1.189\nsamples = 12\nvalue = [0, 3, 1, 8]"] ;
167 -> 168 ;
169 [label="entropy = 0.0\nsamples = 4\nvalue = [0, 0, 0, 4]"] ;
168 -> 169 ;
170 [label="persons <= 4.5\nentropy = 1.406\nsamples = 8\nvalue = [0, 3, 1, 4]"] ;
168 -> 170 ;
171 [label="safety <= 1.5\nentropy = 1.5\nsamples = 4\nvalue = [0, 1, 1, 2]"] ;
170 -> 171 ;
172 [label="entropy = 0.0\nsamples = 2\nvalue = [0, 0, 0, 2]"] ;
171 -> 172 ;
173 [label="lug_boot <= 2.5\nentropy = 1.0\nsamples = 2\nvalue = [0, 1, 1, 0]"] ;
171 -> 173 ;
174 [label="entropy = 0.0\nsamples = 1\nvalue = [0, 0, 1, 0]"] ;
173 -> 174 ;
175 [label="entropy = 0.0\nsamples = 1\nvalue = [0, 1, 0, 0]"] ;
173 -> 175 ;
176 [label="lug_boot <= 2.5\nentropy = 1.0\nsamples = 4\nvalue = [0, 2, 0, 2]"] ;
170 -> 176 ;
177 [label="safety <= 1.5\nentropy = 1.0\nsamples = 2\nvalue = [0, 1, 0, 1]"] ;
176 -> 177 ;
178 [label="entropy = 0.0\nsamples = 1\nvalue = [0, 0, 0, 1]"] ;
177 -> 178 ;
179 [label="entropy = 0.0\nsamples = 1\nvalue = [0, 1, 0, 0]"] ;
177 -> 179 ;
180 [label="safety <= 1.5\nentropy = 1.0\nsamples = 2\nvalue = [0, 1, 0, 1]"] ;
176 -> 180 ;
181 [label="entropy = 0.0\nsamples = 1\nvalue = [0, 0, 0, 1]"] ;
180 -> 181 ;
182 [label="entropy = 0.0\nsamples = 1\nvalue = [0, 1, 0, 0]"] ;
180 -> 182 ;
183 [label="persons <= 3.0\nentropy = 0.971\nsamples = 5\nvalue = [3, 0, 0, 2]"] ;
167 -> 183 ;
184 [label="entropy = 0.0\nsamples = 2\nvalue = [0, 0, 0, 2]"] ;
183 -> 184 ;
185 [label="entropy = 0.0\nsamples = 3\nvalue = [3, 0, 0, 0]"] ;
183 -> 185 ;
186 [label="persons <= 3.0\nentropy = 1.623\nsamples = 16\nvalue = [3, 3, 1, 9]"] ;
166 -> 186 ;
187 [label="entropy = 0.0\nsamples = 6\nvalue = [0, 0, 0, 6]"] ;
186 -> 187 ;
188 [label="lug_boot <= 2.5\nentropy = 1.895\nsamples = 10\nvalue = [3, 3, 1, 3]"] ;
186 -> 188 ;
189 [label="persons <= 4.5\nentropy = 1.922\nsamples = 5\nvalue = [1, 1, 1, 2]"] ;
188 -> 189 ;
190 [label="safety <= 1.5\nentropy = 1.0\nsamples = 2\nvalue = [0, 0, 1, 1]"] ;
189 -> 190 ;
191 [label="entropy = 0.0\nsamples = 1\nvalue = [0, 0, 0, 1]"] ;
190 -> 191 ;
192 [label="entropy = 0.0\nsamples = 1\nvalue = [0, 0, 1, 0]"] ;
190 -> 192 ;
193 [label="safety <= 1.5\nentropy = 1.585\nsamples = 3\nvalue = [1, 1, 0, 1]"] ;
189 -> 193 ;
194 [label="entropy = 0.0\nsamples = 1\nvalue = [0, 0, 0, 1]"] ;
193 -> 194 ;
195 [label="safety <= 2.5\nentropy = 1.0\nsamples = 2\nvalue = [1, 1, 0, 0]"] ;
193 -> 195 ;
196 [label="entropy = 0.0\nsamples = 1\nvalue = [0, 1, 0, 0]"] ;
195 -> 196 ;
197 [label="entropy = 0.0\nsamples = 1\nvalue = [1, 0, 0, 0]"] ;
195 -> 197 ;
198 [label="safety <= 2.5\nentropy = 1.522\nsamples = 5\nvalue = [2, 2, 0, 1]"] ;
188 -> 198 ;
199 [label="safety <= 1.5\nentropy = 0.918\nsamples = 3\nvalue = [0, 2, 0, 1]"] ;
198 -> 199 ;
200 [label="entropy = 0.0\nsamples = 1\nvalue = [0, 0, 0, 1]"] ;
199 -> 200 ;
201 [label="entropy = 0.0\nsamples = 2\nvalue = [0, 2, 0, 0]"] ;
199 -> 201 ;
202 [label="entropy = 0.0\nsamples = 2\nvalue = [2, 0, 0, 0]"] ;
198 -> 202 ;
203 [label="lug_boot <= 2.5\nentropy = 1.651\nsamples = 28\nvalue = [3, 4, 5, 16]"] ;
165 -> 203 ;
204 [label="persons <= 3.0\nentropy = 1.64\nsamples = 15\nvalue = [1, 2, 4, 8]"] ;
203 -> 204 ;
205 [label="entropy = 0.0\nsamples = 4\nvalue = [0, 0, 0, 4]"] ;
204 -> 205 ;
206 [label="persons <= 4.5\nentropy = 1.823\nsamples = 11\nvalue = [1, 2, 4, 4]"] ;
204 -> 206 ;
207 [label="buying <= 1.5\nentropy = 1.459\nsamples = 6\nvalue = [0, 1, 3, 2]"] ;
206 -> 207 ;
208 [label="safety <= 1.5\nentropy = 1.585\nsamples = 3\nvalue = [0, 1, 1, 1]"] ;
207 -> 208 ;
209 [label="entropy = 0.0\nsamples = 1\nvalue = [0, 0, 0, 1]"] ;
208 -> 209 ;
210 [label="safety <= 2.5\nentropy = 1.0\nsamples = 2\nvalue = [0, 1, 1, 0]"] ;
208 -> 210 ;
211 [label="entropy = 0.0\nsamples = 1\nvalue = [0, 0, 1, 0]"] ;
210 -> 211 ;
212 [label="entropy = 0.0\nsamples = 1\nvalue = [0, 1, 0, 0]"] ;
210 -> 212 ;
213 [label="safety <= 1.5\nentropy = 0.918\nsamples = 3\nvalue = [0, 0, 2, 1]"] ;
207 -> 213 ;
214 [label="entropy = 0.0\nsamples = 1\nvalue = [0, 0, 0, 1]"] ;
213 -> 214 ;
215 [label="entropy = 0.0\nsamples = 2\nvalue = [0, 0, 2, 0]"] ;
213 -> 215 ;
216 [label="safety <= 1.5\nentropy = 1.922\nsamples = 5\nvalue = [1, 1, 1, 2]"] ;
206 -> 216 ;
217 [label="entropy = 0.0\nsamples = 2\nvalue = [0, 0, 0, 2]"] ;
216 -> 217 ;
218 [label="buying <= 1.5\nentropy = 1.585\nsamples = 3\nvalue = [1, 1, 1, 0]"] ;
216 -> 218 ;
219 [label="safety <= 2.5\nentropy = 1.0\nsamples = 2\nvalue = [1, 1, 0, 0]"] ;
218 -> 219 ;
220 [label="entropy = 0.0\nsamples = 1\nvalue = [0, 1, 0, 0]"] ;
219 -> 220 ;
221 [label="entropy = 0.0\nsamples = 1\nvalue = [1, 0, 0, 0]"] ;
219 -> 221 ;
222 [label="entropy = 0.0\nsamples = 1\nvalue = [0, 0, 1, 0]"] ;
218 -> 222 ;
223 [label="safety <= 1.5\nentropy = 1.547\nsamples = 13\nvalue = [2, 2, 1, 8]"] ;
203 -> 223 ;
224 [label="entropy = 0.0\nsamples = 6\nvalue = [0, 0, 0, 6]"] ;
223 -> 224 ;
225 [label="safety <= 2.5\nentropy = 1.95\nsamples = 7\nvalue = [2, 2, 1, 2]"] ;
223 -> 225 ;
226 [label="persons <= 3.0\nentropy = 1.5\nsamples = 4\nvalue = [0, 2, 1, 1]"] ;
225 -> 226 ;
227 [label="entropy = 0.0\nsamples = 1\nvalue = [0, 0, 0, 1]"] ;
226 -> 227 ;
228 [label="persons <= 4.5\nentropy = 0.918\nsamples = 3\nvalue = [0, 2, 1, 0]"] ;
226 -> 228 ;
229 [label="entropy = 0.0\nsamples = 1\nvalue = [0, 1, 0, 0]"] ;
228 -> 229 ;
230 [label="buying <= 1.5\nentropy = 1.0\nsamples = 2\nvalue = [0, 1, 1, 0]"] ;
228 -> 230 ;
231 [label="entropy = 0.0\nsamples = 1\nvalue = [0, 1, 0, 0]"] ;
230 -> 231 ;
232 [label="entropy = 0.0\nsamples = 1\nvalue = [0, 0, 1, 0]"] ;
230 -> 232 ;
233 [label="persons <= 3.0\nentropy = 0.918\nsamples = 3\nvalue = [2, 0, 0, 1]"] ;
225 -> 233 ;
234 [label="entropy = 0.0\nsamples = 1\nvalue = [0, 0, 0, 1]"] ;
233 -> 234 ;
235 [label="entropy = 0.0\nsamples = 2\nvalue = [2, 0, 0, 0]"] ;
233 -> 235 ;
236 [label="persons <= 3.0\nentropy = 1.62\nsamples = 127\nvalue = [29, 21, 7, 70]"] ;
108 -> 236 ;
237 [label="entropy = 0.0\nsamples = 43\nvalue = [0, 0, 0, 43]"] ;
236 -> 237 ;
238 [label="doors <= 4.5\nentropy = 1.855\nsamples = 84\nvalue = [29, 21, 7, 27]"] ;
236 -> 238 ;
239 [label="lug_boot <= 2.5\nentropy = 1.832\nsamples = 42\nvalue = [15, 11, 3, 13]"] ;
238 -> 239 ;
240 [label="buying <= 1.5\nentropy = 1.863\nsamples = 21\nvalue = [8, 6, 2, 5]"] ;
239 -> 240 ;
241 [label="safety <= 2.5\nentropy = 1.522\nsamples = 10\nvalue = [4, 4, 0, 2]"] ;
240 -> 241 ;
242 [label="safety <= 1.5\nentropy = 0.918\nsamples = 6\nvalue = [0, 4, 0, 2]"] ;
241 -> 242 ;
243 [label="entropy = 0.0\nsamples = 2\nvalue = [0, 0, 0, 2]"] ;
242 -> 243 ;
244 [label="entropy = 0.0\nsamples = 4\nvalue = [0, 4, 0, 0]"] ;
242 -> 244 ;
245 [label="entropy = 0.0\nsamples = 4\nvalue = [4, 0, 0, 0]"] ;
241 -> 245 ;
246 [label="safety <= 2.5\nentropy = 1.936\nsamples = 11\nvalue = [4, 2, 2, 3]"] ;
240 -> 246 ;
247 [label="safety <= 1.5\nentropy = 1.557\nsamples = 7\nvalue = [0, 2, 2, 3]"] ;
246 -> 247 ;
248 [label="entropy = 0.0\nsamples = 3\nvalue = [0, 0, 0, 3]"] ;
247 -> 248 ;
249 [label="persons <= 4.5\nentropy = 1.0\nsamples = 4\nvalue = [0, 2, 2, 0]"] ;
247 -> 249 ;
250 [label="maint <= 1.5\nentropy = 1.0\nsamples = 2\nvalue = [0, 1, 1, 0]"] ;
249 -> 250 ;
251 [label="entropy = 0.0\nsamples = 1\nvalue = [0, 1, 0, 0]"] ;
250 -> 251 ;
252 [label="entropy = 0.0\nsamples = 1\nvalue = [0, 0, 1, 0]"] ;
250 -> 252 ;
253 [label="maint <= 1.5\nentropy = 1.0\nsamples = 2\nvalue = [0, 1, 1, 0]"] ;
249 -> 253 ;
254 [label="entropy = 0.0\nsamples = 1\nvalue = [0, 1, 0, 0]"] ;
253 -> 254 ;
255 [label="entropy = 0.0\nsamples = 1\nvalue = [0, 0, 1, 0]"] ;
253 -> 255 ;
256 [label="entropy = 0.0\nsamples = 4\nvalue = [4, 0, 0, 0]"] ;
246 -> 256 ;
257 [label="persons <= 4.5\nentropy = 1.761\nsamples = 21\nvalue = [7, 5, 1, 8]"] ;
239 -> 257 ;
258 [label="safety <= 1.5\nentropy = 1.53\nsamples = 9\nvalue = [3, 2, 0, 4]"] ;
257 -> 258 ;
259 [label="entropy = 0.0\nsamples = 4\nvalue = [0, 0, 0, 4]"] ;
258 -> 259 ;
260 [label="buying <= 1.5\nentropy = 0.971\nsamples = 5\nvalue = [3, 2, 0, 0]"] ;
258 -> 260 ;
261 [label="safety <= 2.5\nentropy = 1.0\nsamples = 2\nvalue = [1, 1, 0, 0]"] ;
260 -> 261 ;
262 [label="entropy = 0.0\nsamples = 1\nvalue = [0, 1, 0, 0]"] ;
261 -> 262 ;
263 [label="entropy = 0.0\nsamples = 1\nvalue = [1, 0, 0, 0]"] ;
261 -> 263 ;
264 [label="maint <= 1.5\nentropy = 0.918\nsamples = 3\nvalue = [2, 1, 0, 0]"] ;
260 -> 264 ;
265 [label="safety <= 2.5\nentropy = 1.0\nsamples = 2\nvalue = [1, 1, 0, 0]"] ;
264 -> 265 ;
266 [label="entropy = 0.0\nsamples = 1\nvalue = [0, 1, 0, 0]"] ;
265 -> 266 ;
267 [label="entropy = 0.0\nsamples = 1\nvalue = [1, 0, 0, 0]"] ;
265 -> 267 ;
268 [label="entropy = 0.0\nsamples = 1\nvalue = [1, 0, 0, 0]"] ;
264 -> 268 ;
269 [label="maint <= 1.5\nentropy = 1.855\nsamples = 12\nvalue = [4, 3, 1, 4]"] ;
257 -> 269 ;
270 [label="buying <= 1.5\nentropy = 1.585\nsamples = 6\nvalue = [2, 2, 0, 2]"] ;
269 -> 270 ;
271 [label="safety <= 1.5\nentropy = 1.585\nsamples = 3\nvalue = [1, 1, 0, 1]"] ;
270 -> 271 ;
272 [label="entropy = 0.0\nsamples = 1\nvalue = [0, 0, 0, 1]"] ;
271 -> 272 ;
273 [label="safety <= 2.5\nentropy = 1.0\nsamples = 2\nvalue = [1, 1, 0, 0]"] ;
271 -> 273 ;
274 [label="entropy = 0.0\nsamples = 1\nvalue = [0, 1, 0, 0]"] ;
273 -> 274 ;
275 [label="entropy = 0.0\nsamples = 1\nvalue = [1, 0, 0, 0]"] ;
273 -> 275 ;
276 [label="safety <= 1.5\nentropy = 1.585\nsamples = 3\nvalue = [1, 1, 0, 1]"] ;
270 -> 276 ;
277 [label="entropy = 0.0\nsamples = 1\nvalue = [0, 0, 0, 1]"] ;
276 -> 277 ;
278 [label="safety <= 2.5\nentropy = 1.0\nsamples = 2\nvalue = [1, 1, 0, 0]"] ;
276 -> 278 ;
279 [label="entropy = 0.0\nsamples = 1\nvalue = [0, 1, 0, 0]"] ;
278 -> 279 ;
280 [label="entropy = 0.0\nsamples = 1\nvalue = [1, 0, 0, 0]"] ;
278 -> 280 ;
281 [label="buying <= 1.5\nentropy = 1.918\nsamples = 6\nvalue = [2, 1, 1, 2]"] ;
269 -> 281 ;
282 [label="safety <= 1.5\nentropy = 1.585\nsamples = 3\nvalue = [1, 1, 0, 1]"] ;
281 -> 282 ;
283 [label="entropy = 0.0\nsamples = 1\nvalue = [0, 0, 0, 1]"] ;
282 -> 283 ;
284 [label="safety <= 2.5\nentropy = 1.0\nsamples = 2\nvalue = [1, 1, 0, 0]"] ;
282 -> 284 ;
285 [label="entropy = 0.0\nsamples = 1\nvalue = [0, 1, 0, 0]"] ;
284 -> 285 ;
286 [label="entropy = 0.0\nsamples = 1\nvalue = [1, 0, 0, 0]"] ;
284 -> 286 ;
287 [label="safety <= 1.5\nentropy = 1.585\nsamples = 3\nvalue = [1, 0, 1, 1]"] ;
281 -> 287 ;
288 [label="entropy = 0.0\nsamples = 1\nvalue = [0, 0, 0, 1]"] ;
287 -> 288 ;
289 [label="safety <= 2.5\nentropy = 1.0\nsamples = 2\nvalue = [1, 0, 1, 0]"] ;
287 -> 289 ;
290 [label="entropy = 0.0\nsamples = 1\nvalue = [0, 0, 1, 0]"] ;
289 -> 290 ;
291 [label="entropy = 0.0\nsamples = 1\nvalue = [1, 0, 0, 0]"] ;
289 -> 291 ;
292 [label="persons <= 4.5\nentropy = 1.873\nsamples = 42\nvalue = [14, 10, 4, 14]"] ;
238 -> 292 ;
293 [label="maint <= 1.5\nentropy = 1.883\nsamples = 20\nvalue = [6, 5, 2, 7]"] ;
292 -> 293 ;
294 [label="safety <= 1.5\nentropy = 1.585\nsamples = 9\nvalue = [3, 3, 0, 3]"] ;
293 -> 294 ;
295 [label="entropy = 0.0\nsamples = 3\nvalue = [0, 0, 0, 3]"] ;
294 -> 295 ;
296 [label="buying <= 1.5\nentropy = 1.0\nsamples = 6\nvalue = [3, 3, 0, 0]"] ;
294 -> 296 ;
297 [label="lug_boot <= 2.5\nentropy = 0.918\nsamples = 3\nvalue = [2, 1, 0, 0]"] ;
296 -> 297 ;
298 [label="safety <= 2.5\nentropy = 1.0\nsamples = 2\nvalue = [1, 1, 0, 0]"] ;
297 -> 298 ;
299 [label="entropy = 0.0\nsamples = 1\nvalue = [0, 1, 0, 0]"] ;
298 -> 299 ;
300 [label="entropy = 0.0\nsamples = 1\nvalue = [1, 0, 0, 0]"] ;
298 -> 300 ;
301 [label="entropy = 0.0\nsamples = 1\nvalue = [1, 0, 0, 0]"] ;
297 -> 301 ;
302 [label="lug_boot <= 2.5\nentropy = 0.918\nsamples = 3\nvalue = [1, 2, 0, 0]"] ;
296 -> 302 ;
303 [label="entropy = 0.0\nsamples = 1\nvalue = [0, 1, 0, 0]"] ;
302 -> 303 ;
304 [label="safety <= 2.5\nentropy = 1.0\nsamples = 2\nvalue = [1, 1, 0, 0]"] ;
302 -> 304 ;
305 [label="entropy = 0.0\nsamples = 1\nvalue = [0, 1, 0, 0]"] ;
304 -> 305 ;
306 [label="entropy = 0.0\nsamples = 1\nvalue = [1, 0, 0, 0]"] ;
304 -> 306 ;
307 [label="buying <= 1.5\nentropy = 1.936\nsamples = 11\nvalue = [3, 2, 2, 4]"] ;
293 -> 307 ;
308 [label="safety <= 1.5\nentropy = 1.522\nsamples = 5\nvalue = [1, 2, 0, 2]"] ;
307 -> 308 ;
309 [label="entropy = 0.0\nsamples = 2\nvalue = [0, 0, 0, 2]"] ;
308 -> 309 ;
310 [label="safety <= 2.5\nentropy = 0.918\nsamples = 3\nvalue = [1, 2, 0, 0]"] ;
308 -> 310 ;
311 [label="entropy = 0.0\nsamples = 2\nvalue = [0, 2, 0, 0]"] ;
310 -> 311 ;
312 [label="entropy = 0.0\nsamples = 1\nvalue = [1, 0, 0, 0]"] ;
310 -> 312 ;
313 [label="lug_boot <= 2.5\nentropy = 1.585\nsamples = 6\nvalue = [2, 0, 2, 2]"] ;
307 -> 313 ;
314 [label="safety <= 1.5\nentropy = 1.585\nsamples = 3\nvalue = [1, 0, 1, 1]"] ;
313 -> 314 ;
315 [label="entropy = 0.0\nsamples = 1\nvalue = [0, 0, 0, 1]"] ;
314 -> 315 ;
316 [label="safety <= 2.5\nentropy = 1.0\nsamples = 2\nvalue = [1, 0, 1, 0]"] ;
314 -> 316 ;
317 [label="entropy = 0.0\nsamples = 1\nvalue = [0, 0, 1, 0]"] ;
316 -> 317 ;
318 [label="entropy = 0.0\nsamples = 1\nvalue = [1, 0, 0, 0]"] ;
316 -> 318 ;
319 [label="safety <= 1.5\nentropy = 1.585\nsamples = 3\nvalue = [1, 0, 1, 1]"] ;
313 -> 319 ;
320 [label="entropy = 0.0\nsamples = 1\nvalue = [0, 0, 0, 1]"] ;
319 -> 320 ;
321 [label="safety <= 2.5\nentropy = 1.0\nsamples = 2\nvalue = [1, 0, 1, 0]"] ;
319 -> 321 ;
322 [label="entropy = 0.0\nsamples = 1\nvalue = [0, 0, 1, 0]"] ;
321 -> 322 ;
323 [label="entropy = 0.0\nsamples = 1\nvalue = [1, 0, 0, 0]"] ;
321 -> 323 ;
324 [label="buying <= 1.5\nentropy = 1.857\nsamples = 22\nvalue = [8, 5, 2, 7]"] ;
292 -> 324 ;
325 [label="maint <= 1.5\nentropy = 1.573\nsamples = 11\nvalue = [4, 4, 0, 3]"] ;
324 -> 325 ;
326 [label="safety <= 2.5\nentropy = 1.522\nsamples = 5\nvalue = [2, 2, 0, 1]"] ;
325 -> 326 ;
327 [label="safety <= 1.5\nentropy = 0.918\nsamples = 3\nvalue = [0, 2, 0, 1]"] ;
326 -> 327 ;
328 [label="entropy = 0.0\nsamples = 1\nvalue = [0, 0, 0, 1]"] ;
327 -> 328 ;
329 [label="entropy = 0.0\nsamples = 2\nvalue = [0, 2, 0, 0]"] ;
327 -> 329 ;
330 [label="entropy = 0.0\nsamples = 2\nvalue = [2, 0, 0, 0]"] ;
326 -> 330 ;
331 [label="safety <= 1.5\nentropy = 1.585\nsamples = 6\nvalue = [2, 2, 0, 2]"] ;
325 -> 331 ;
332 [label="entropy = 0.0\nsamples = 2\nvalue = [0, 0, 0, 2]"] ;
331 -> 332 ;
333 [label="safety <= 2.5\nentropy = 1.0\nsamples = 4\nvalue = [2, 2, 0, 0]"] ;
331 -> 333 ;
334 [label="entropy = 0.0\nsamples = 2\nvalue = [0, 2, 0, 0]"] ;
333 -> 334 ;
335 [label="entropy = 0.0\nsamples = 2\nvalue = [2, 0, 0, 0]"] ;
333 -> 335 ;
336 [label="safety <= 2.5\nentropy = 1.823\nsamples = 11\nvalue = [4, 1, 2, 4]"] ;
324 -> 336 ;
337 [label="safety <= 1.5\nentropy = 1.379\nsamples = 7\nvalue = [0, 1, 2, 4]"] ;
336 -> 337 ;
338 [label="entropy = 0.0\nsamples = 4\nvalue = [0, 0, 0, 4]"] ;
337 -> 338 ;
339 [label="lug_boot <= 2.5\nentropy = 0.918\nsamples = 3\nvalue = [0, 1, 2, 0]"] ;
337 -> 339 ;
340 [label="entropy = 0.0\nsamples = 1\nvalue = [0, 0, 1, 0]"] ;
339 -> 340 ;
341 [label="maint <= 1.5\nentropy = 1.0\nsamples = 2\nvalue = [0, 1, 1, 0]"] ;
339 -> 341 ;
342 [label="entropy = 0.0\nsamples = 1\nvalue = [0, 1, 0, 0]"] ;
341 -> 342 ;
343 [label="entropy = 0.0\nsamples = 1\nvalue = [0, 0, 1, 0]"] ;
341 -> 343 ;
344 [label="entropy = 0.0\nsamples = 4\nvalue = [4, 0, 0, 0]"] ;
336 -> 344 ;
345 [label="safety <= 1.5\nentropy = 0.922\nsamples = 401\nvalue = [0, 0, 135, 266]"] ;
1 -> 345 ;
346 [label="entropy = 0.0\nsamples = 135\nvalue = [0, 0, 0, 135]"] ;
345 -> 346 ;
347 [label="lug_boot <= 1.5\nentropy = 1.0\nsamples = 266\nvalue = [0, 0, 135, 131]"] ;
345 -> 347 ;
348 [label="buying <= 3.5\nentropy = 0.884\nsamples = 86\nvalue = [0, 0, 26, 60]"] ;
347 -> 348 ;
349 [label="maint <= 1.5\nentropy = 0.893\nsamples = 42\nvalue = [0, 0, 13, 29]"] ;
348 -> 349 ;
350 [label="safety <= 2.5\nentropy = 0.863\nsamples = 21\nvalue = [0, 0, 6, 15]"] ;
349 -> 350 ;
351 [label="entropy = 0.0\nsamples = 11\nvalue = [0, 0, 0, 11]"] ;
350 -> 351 ;
352 [label="persons <= 3.0\nentropy = 0.971\nsamples = 10\nvalue = [0, 0, 6, 4]"] ;
350 -> 352 ;
353 [label="entropy = 0.0\nsamples = 3\nvalue = [0, 0, 0, 3]"] ;
352 -> 353 ;
354 [label="doors <= 2.5\nentropy = 0.592\nsamples = 7\nvalue = [0, 0, 6, 1]"] ;
352 -> 354 ;
355 [label="persons <= 4.5\nentropy = 1.0\nsamples = 2\nvalue = [0, 0, 1, 1]"] ;
354 -> 355 ;
356 [label="entropy = 0.0\nsamples = 1\nvalue = [0, 0, 1, 0]"] ;
355 -> 356 ;
357 [label="entropy = 0.0\nsamples = 1\nvalue = [0, 0, 0, 1]"] ;
355 -> 357 ;
358 [label="entropy = 0.0\nsamples = 5\nvalue = [0, 0, 5, 0]"] ;
354 -> 358 ;
359 [label="doors <= 2.5\nentropy = 0.918\nsamples = 21\nvalue = [0, 0, 7, 14]"] ;
349 -> 359 ;
360 [label="persons <= 3.0\nentropy = 0.811\nsamples = 4\nvalue = [0, 0, 1, 3]"] ;
359 -> 360 ;
361 [label="entropy = 0.0\nsamples = 1\nvalue = [0, 0, 0, 1]"] ;
360 -> 361 ;
362 [label="safety <= 2.5\nentropy = 0.918\nsamples = 3\nvalue = [0, 0, 1, 2]"] ;
360 -> 362 ;
363 [label="entropy = 0.0\nsamples = 2\nvalue = [0, 0, 0, 2]"] ;
362 -> 363 ;
364 [label="entropy = 0.0\nsamples = 1\nvalue = [0, 0, 1, 0]"] ;
362 -> 364 ;
365 [label="safety <= 2.5\nentropy = 0.937\nsamples = 17\nvalue = [0, 0, 6, 11]"] ;
359 -> 365 ;
366 [label="entropy = 0.0\nsamples = 8\nvalue = [0, 0, 0, 8]"] ;
365 -> 366 ;
367 [label="persons <= 3.0\nentropy = 0.918\nsamples = 9\nvalue = [0, 0, 6, 3]"] ;
365 -> 367 ;
368 [label="entropy = 0.0\nsamples = 3\nvalue = [0, 0, 0, 3]"] ;
367 -> 368 ;
369 [label="entropy = 0.0\nsamples = 6\nvalue = [0, 0, 6, 0]"] ;
367 -> 369 ;
370 [label="safety <= 2.5\nentropy = 0.876\nsamples = 44\nvalue = [0, 0, 13, 31]"] ;
348 -> 370 ;
371 [label="entropy = 0.0\nsamples = 24\nvalue = [0, 0, 0, 24]"] ;
370 -> 371 ;
372 [label="doors <= 3.5\nentropy = 0.934\nsamples = 20\nvalue = [0, 0, 13, 7]"] ;
370 -> 372 ;
373 [label="doors <= 2.5\nentropy = 1.0\nsamples = 10\nvalue = [0, 0, 5, 5]"] ;
372 -> 373 ;
374 [label="maint <= 1.5\nentropy = 0.971\nsamples = 5\nvalue = [0, 0, 2, 3]"] ;
373 -> 374 ;
375 [label="persons <= 3.0\nentropy = 0.918\nsamples = 3\nvalue = [0, 0, 1, 2]"] ;
374 -> 375 ;
376 [label="entropy = 0.0\nsamples = 1\nvalue = [0, 0, 0, 1]"] ;
375 -> 376 ;
377 [label="persons <= 4.5\nentropy = 1.0\nsamples = 2\nvalue = [0, 0, 1, 1]"] ;
375 -> 377 ;
378 [label="entropy = 0.0\nsamples = 1\nvalue = [0, 0, 1, 0]"] ;
377 -> 378 ;
379 [label="entropy = 0.0\nsamples = 1\nvalue = [0, 0, 0, 1]"] ;
377 -> 379 ;
380 [label="persons <= 4.5\nentropy = 1.0\nsamples = 2\nvalue = [0, 0, 1, 1]"] ;
374 -> 380 ;
381 [label="entropy = 0.0\nsamples = 1\nvalue = [0, 0, 1, 0]"] ;
380 -> 381 ;
382 [label="entropy = 0.0\nsamples = 1\nvalue = [0, 0, 0, 1]"] ;
380 -> 382 ;
383 [label="maint <= 1.5\nentropy = 0.971\nsamples = 5\nvalue = [0, 0, 3, 2]"] ;
373 -> 383 ;
384 [label="persons <= 3.0\nentropy = 0.918\nsamples = 3\nvalue = [0, 0, 2, 1]"] ;
383 -> 384 ;
385 [label="entropy = 0.0\nsamples = 1\nvalue = [0, 0, 0, 1]"] ;
384 -> 385 ;
386 [label="entropy = 0.0\nsamples = 2\nvalue = [0, 0, 2, 0]"] ;
384 -> 386 ;
387 [label="persons <= 3.0\nentropy = 1.0\nsamples = 2\nvalue = [0, 0, 1, 1]"] ;
383 -> 387 ;
388 [label="entropy = 0.0\nsamples = 1\nvalue = [0, 0, 0, 1]"] ;
387 -> 388 ;
389 [label="entropy = 0.0\nsamples = 1\nvalue = [0, 0, 1, 0]"] ;
387 -> 389 ;
390 [label="persons <= 3.0\nentropy = 0.722\nsamples = 10\nvalue = [0, 0, 8, 2]"] ;
372 -> 390 ;
391 [label="entropy = 0.0\nsamples = 2\nvalue = [0, 0, 0, 2]"] ;
390 -> 391 ;
392 [label="entropy = 0.0\nsamples = 8\nvalue = [0, 0, 8, 0]"] ;
390 -> 392 ;
393 [label="buying <= 3.5\nentropy = 0.968\nsamples = 180\nvalue = [0, 0, 109, 71]"] ;
347 -> 393 ;
394 [label="persons <= 3.0\nentropy = 0.959\nsamples = 89\nvalue = [0, 0, 55, 34]"] ;
393 -> 394 ;
395 [label="entropy = 0.0\nsamples = 29\nvalue = [0, 0, 0, 29]"] ;
394 -> 395 ;
396 [label="safety <= 2.5\nentropy = 0.414\nsamples = 60\nvalue = [0, 0, 55, 5]"] ;
394 -> 396 ;
397 [label="doors <= 3.5\nentropy = 0.663\nsamples = 29\nvalue = [0, 0, 24, 5]"] ;
396 -> 397 ;
398 [label="maint <= 1.5\nentropy = 0.94\nsamples = 14\nvalue = [0, 0, 9, 5]"] ;
397 -> 398 ;
399 [label="lug_boot <= 2.5\nentropy = 0.863\nsamples = 7\nvalue = [0, 0, 5, 2]"] ;
398 -> 399 ;
400 [label="doors <= 2.5\nentropy = 0.918\nsamples = 3\nvalue = [0, 0, 1, 2]"] ;
399 -> 400 ;
401 [label="entropy = 0.0\nsamples = 1\nvalue = [0, 0, 0, 1]"] ;
400 -> 401 ;
402 [label="persons <= 4.5\nentropy = 1.0\nsamples = 2\nvalue = [0, 0, 1, 1]"] ;
400 -> 402 ;
403 [label="entropy = 0.0\nsamples = 1\nvalue = [0, 0, 0, 1]"] ;
402 -> 403 ;
404 [label="entropy = 0.0\nsamples = 1\nvalue = [0, 0, 1, 0]"] ;
402 -> 404 ;
405 [label="entropy = 0.0\nsamples = 4\nvalue = [0, 0, 4, 0]"] ;
399 -> 405 ;
406 [label="doors <= 2.5\nentropy = 0.985\nsamples = 7\nvalue = [0, 0, 4, 3]"] ;
398 -> 406 ;
407 [label="persons <= 4.5\nentropy = 0.918\nsamples = 3\nvalue = [0, 0, 1, 2]"] ;
406 -> 407 ;
408 [label="lug_boot <= 2.5\nentropy = 1.0\nsamples = 2\nvalue = [0, 0, 1, 1]"] ;
407 -> 408 ;
409 [label="entropy = 0.0\nsamples = 1\nvalue = [0, 0, 0, 1]"] ;
408 -> 409 ;
410 [label="entropy = 0.0\nsamples = 1\nvalue = [0, 0, 1, 0]"] ;
408 -> 410 ;
411 [label="entropy = 0.0\nsamples = 1\nvalue = [0, 0, 0, 1]"] ;
407 -> 411 ;
412 [label="persons <= 4.5\nentropy = 0.811\nsamples = 4\nvalue = [0, 0, 3, 1]"] ;
406 -> 412 ;
413 [label="lug_boot <= 2.5\nentropy = 1.0\nsamples = 2\nvalue = [0, 0, 1, 1]"] ;
412 -> 413 ;
414 [label="entropy = 0.0\nsamples = 1\nvalue = [0, 0, 0, 1]"] ;
413 -> 414 ;
415 [label="entropy = 0.0\nsamples = 1\nvalue = [0, 0, 1, 0]"] ;
413 -> 415 ;
416 [label="entropy = 0.0\nsamples = 2\nvalue = [0, 0, 2, 0]"] ;
412 -> 416 ;
417 [label="entropy = 0.0\nsamples = 15\nvalue = [0, 0, 15, 0]"] ;
397 -> 417 ;
418 [label="entropy = 0.0\nsamples = 31\nvalue = [0, 0, 31, 0]"] ;
396 -> 418 ;
419 [label="safety <= 2.5\nentropy = 0.975\nsamples = 91\nvalue = [0, 0, 54, 37]"] ;
393 -> 419 ;
420 [label="persons <= 3.0\nentropy = 0.995\nsamples = 46\nvalue = [0, 0, 25, 21]"] ;
419 -> 420 ;
421 [label="entropy = 0.0\nsamples = 15\nvalue = [0, 0, 0, 15]"] ;
420 -> 421 ;
422 [label="persons <= 4.5\nentropy = 0.709\nsamples = 31\nvalue = [0, 0, 25, 6]"] ;
420 -> 422 ;
423 [label="lug_boot <= 2.5\nentropy = 0.811\nsamples = 16\nvalue = [0, 0, 12, 4]"] ;
422 -> 423 ;
424 [label="doors <= 3.5\nentropy = 1.0\nsamples = 8\nvalue = [0, 0, 4, 4]"] ;
423 -> 424 ;
425 [label="entropy = 0.0\nsamples = 4\nvalue = [0, 0, 0, 4]"] ;
424 -> 425 ;
426 [label="entropy = 0.0\nsamples = 4\nvalue = [0, 0, 4, 0]"] ;
424 -> 426 ;
427 [label="entropy = 0.0\nsamples = 8\nvalue = [0, 0, 8, 0]"] ;
423 -> 427 ;
428 [label="lug_boot <= 2.5\nentropy = 0.567\nsamples = 15\nvalue = [0, 0, 13, 2]"] ;
422 -> 428 ;
429 [label="maint <= 1.5\nentropy = 0.811\nsamples = 8\nvalue = [0, 0, 6, 2]"] ;
428 -> 429 ;
430 [label="doors <= 2.5\nentropy = 0.811\nsamples = 4\nvalue = [0, 0, 3, 1]"] ;
429 -> 430 ;
431 [label="entropy = 0.0\nsamples = 1\nvalue = [0, 0, 0, 1]"] ;
430 -> 431 ;
432 [label="entropy = 0.0\nsamples = 3\nvalue = [0, 0, 3, 0]"] ;
430 -> 432 ;
433 [label="doors <= 2.5\nentropy = 0.811\nsamples = 4\nvalue = [0, 0, 3, 1]"] ;
429 -> 433 ;
434 [label="entropy = 0.0\nsamples = 1\nvalue = [0, 0, 0, 1]"] ;
433 -> 434 ;
435 [label="entropy = 0.0\nsamples = 3\nvalue = [0, 0, 3, 0]"] ;
433 -> 435 ;
436 [label="entropy = 0.0\nsamples = 7\nvalue = [0, 0, 7, 0]"] ;
428 -> 436 ;
437 [label="lug_boot <= 2.5\nentropy = 0.939\nsamples = 45\nvalue = [0, 0, 29, 16]"] ;
419 -> 437 ;
438 [label="doors <= 4.5\nentropy = 0.932\nsamples = 23\nvalue = [0, 0, 15, 8]"] ;
437 -> 438 ;
439 [label="maint <= 1.5\nentropy = 0.918\nsamples = 18\nvalue = [0, 0, 12, 6]"] ;
438 -> 439 ;
440 [label="persons <= 3.0\nentropy = 0.918\nsamples = 9\nvalue = [0, 0, 6, 3]"] ;
439 -> 440 ;
441 [label="entropy = 0.0\nsamples = 3\nvalue = [0, 0, 0, 3]"] ;
440 -> 441 ;
442 [label="entropy = 0.0\nsamples = 6\nvalue = [0, 0, 6, 0]"] ;
440 -> 442 ;
443 [label="doors <= 2.5\nentropy = 0.918\nsamples = 9\nvalue = [0, 0, 6, 3]"] ;
439 -> 443 ;
444 [label="persons <= 3.0\nentropy = 0.918\nsamples = 3\nvalue = [0, 0, 2, 1]"] ;
443 -> 444 ;
445 [label="entropy = 0.0\nsamples = 1\nvalue = [0, 0, 0, 1]"] ;
444 -> 445 ;
446 [label="entropy = 0.0\nsamples = 2\nvalue = [0, 0, 2, 0]"] ;
444 -> 446 ;
447 [label="persons <= 3.0\nentropy = 0.918\nsamples = 6\nvalue = [0, 0, 4, 2]"] ;
443 -> 447 ;
448 [label="entropy = 0.0\nsamples = 2\nvalue = [0, 0, 0, 2]"] ;
447 -> 448 ;
449 [label="entropy = 0.0\nsamples = 4\nvalue = [0, 0, 4, 0]"] ;
447 -> 449 ;
450 [label="maint <= 1.5\nentropy = 0.971\nsamples = 5\nvalue = [0, 0, 3, 2]"] ;
438 -> 450 ;
451 [label="persons <= 3.0\nentropy = 0.918\nsamples = 3\nvalue = [0, 0, 2, 1]"] ;
450 -> 451 ;
452 [label="entropy = 0.0\nsamples = 1\nvalue = [0, 0, 0, 1]"] ;
451 -> 452 ;
453 [label="entropy = 0.0\nsamples = 2\nvalue = [0, 0, 2, 0]"] ;
451 -> 453 ;
454 [label="persons <= 3.5\nentropy = 1.0\nsamples = 2\nvalue = [0, 0, 1, 1]"] ;
450 -> 454 ;
455 [label="entropy = 0.0\nsamples = 1\nvalue = [0, 0, 0, 1]"] ;
454 -> 455 ;
456 [label="entropy = 0.0\nsamples = 1\nvalue = [0, 0, 1, 0]"] ;
454 -> 456 ;
457 [label="maint <= 1.5\nentropy = 0.946\nsamples = 22\nvalue = [0, 0, 14, 8]"] ;
437 -> 457 ;
458 [label="doors <= 2.5\nentropy = 0.918\nsamples = 12\nvalue = [0, 0, 8, 4]"] ;
457 -> 458 ;
459 [label="persons <= 3.0\nentropy = 0.918\nsamples = 3\nvalue = [0, 0, 2, 1]"] ;
458 -> 459 ;
460 [label="entropy = 0.0\nsamples = 1\nvalue = [0, 0, 0, 1]"] ;
459 -> 460 ;
461 [label="entropy = 0.0\nsamples = 2\nvalue = [0, 0, 2, 0]"] ;
459 -> 461 ;
462 [label="persons <= 3.0\nentropy = 0.918\nsamples = 9\nvalue = [0, 0, 6, 3]"] ;
458 -> 462 ;
463 [label="entropy = 0.0\nsamples = 3\nvalue = [0, 0, 0, 3]"] ;
462 -> 463 ;
464 [label="entropy = 0.0\nsamples = 6\nvalue = [0, 0, 6, 0]"] ;
462 -> 464 ;
465 [label="persons <= 3.0\nentropy = 0.971\nsamples = 10\nvalue = [0, 0, 6, 4]"] ;
457 -> 465 ;
466 [label="entropy = 0.0\nsamples = 4\nvalue = [0, 0, 0, 4]"] ;
465 -> 466 ;
467 [label="entropy = 0.0\nsamples = 6\nvalue = [0, 0, 6, 0]"] ;
465 -> 467 ;
468 [label="doors <= 2.5\nentropy = 0.834\nsamples = 772\nvalue = [13, 0, 152, 607]"] ;
0 -> 468 [labeldistance=2.5, labelangle=-45, headlabel="False"] ;
469 [label="maint <= 3.5\nentropy = 0.686\nsamples = 184\nvalue = [2, 0, 27, 155]"] ;
468 -> 469 ;
470 [label="buying <= 3.5\nentropy = 0.806\nsamples = 93\nvalue = [2, 0, 16, 75]"] ;
469 -> 470 ;
471 [label="buying <= 1.5\nentropy = 0.959\nsamples = 69\nvalue = [2, 0, 16, 51]"] ;
470 -> 471 ;
472 [label="lug_boot <= 2.5\nentropy = 1.218\nsamples = 25\nvalue = [2, 0, 7, 16]"] ;
471 -> 472 ;
473 [label="safety <= 1.5\nentropy = 0.896\nsamples = 16\nvalue = [0, 0, 5, 11]"] ;
472 -> 473 ;
474 [label="entropy = 0.0\nsamples = 5\nvalue = [0, 0, 0, 5]"] ;
473 -> 474 ;
475 [label="persons <= 3.0\nentropy = 0.994\nsamples = 11\nvalue = [0, 0, 5, 6]"] ;
473 -> 475 ;
476 [label="entropy = 0.0\nsamples = 4\nvalue = [0, 0, 0, 4]"] ;
475 -> 476 ;
477 [label="safety <= 2.5\nentropy = 0.863\nsamples = 7\nvalue = [0, 0, 5, 2]"] ;
475 -> 477 ;
478 [label="lug_boot <= 1.5\nentropy = 0.918\nsamples = 3\nvalue = [0, 0, 2, 1]"] ;
477 -> 478 ;
479 [label="persons <= 4.5\nentropy = 1.0\nsamples = 2\nvalue = [0, 0, 1, 1]"] ;
478 -> 479 ;
480 [label="entropy = 0.0\nsamples = 1\nvalue = [0, 0, 1, 0]"] ;
479 -> 480 ;
481 [label="entropy = 0.0\nsamples = 1\nvalue = [0, 0, 0, 1]"] ;
479 -> 481 ;
482 [label="entropy = 0.0\nsamples = 1\nvalue = [0, 0, 1, 0]"] ;
478 -> 482 ;
483 [label="lug_boot <= 1.5\nentropy = 0.811\nsamples = 4\nvalue = [0, 0, 3, 1]"] ;
477 -> 483 ;
484 [label="persons <= 4.5\nentropy = 1.0\nsamples = 2\nvalue = [0, 0, 1, 1]"] ;
483 -> 484 ;
485 [label="entropy = 0.0\nsamples = 1\nvalue = [0, 0, 1, 0]"] ;
484 -> 485 ;
486 [label="entropy = 0.0\nsamples = 1\nvalue = [0, 0, 0, 1]"] ;
484 -> 486 ;
487 [label="entropy = 0.0\nsamples = 2\nvalue = [0, 0, 2, 0]"] ;
483 -> 487 ;
488 [label="persons <= 3.0\nentropy = 1.436\nsamples = 9\nvalue = [2, 0, 2, 5]"] ;
472 -> 488 ;
489 [label="entropy = 0.0\nsamples = 3\nvalue = [0, 0, 0, 3]"] ;
488 -> 489 ;
490 [label="persons <= 4.5\nentropy = 1.585\nsamples = 6\nvalue = [2, 0, 2, 2]"] ;
488 -> 490 ;
491 [label="safety <= 1.5\nentropy = 1.585\nsamples = 3\nvalue = [1, 0, 1, 1]"] ;
490 -> 491 ;
492 [label="entropy = 0.0\nsamples = 1\nvalue = [0, 0, 0, 1]"] ;
491 -> 492 ;
493 [label="safety <= 2.5\nentropy = 1.0\nsamples = 2\nvalue = [1, 0, 1, 0]"] ;
491 -> 493 ;
494 [label="entropy = 0.0\nsamples = 1\nvalue = [0, 0, 1, 0]"] ;
493 -> 494 ;
495 [label="entropy = 0.0\nsamples = 1\nvalue = [1, 0, 0, 0]"] ;
493 -> 495 ;
496 [label="safety <= 1.5\nentropy = 1.585\nsamples = 3\nvalue = [1, 0, 1, 1]"] ;
490 -> 496 ;
497 [label="entropy = 0.0\nsamples = 1\nvalue = [0, 0, 0, 1]"] ;
496 -> 497 ;
498 [label="safety <= 2.5\nentropy = 1.0\nsamples = 2\nvalue = [1, 0, 1, 0]"] ;
496 -> 498 ;
499 [label="entropy = 0.0\nsamples = 1\nvalue = [0, 0, 1, 0]"] ;
498 -> 499 ;
500 [label="entropy = 0.0\nsamples = 1\nvalue = [1, 0, 0, 0]"] ;
498 -> 500 ;
501 [label="lug_boot <= 2.5\nentropy = 0.731\nsamples = 44\nvalue = [0, 0, 9, 35]"] ;
471 -> 501 ;
502 [label="safety <= 2.5\nentropy = 0.544\nsamples = 32\nvalue = [0, 0, 4, 28]"] ;
501 -> 502 ;
503 [label="entropy = 0.0\nsamples = 22\nvalue = [0, 0, 0, 22]"] ;
502 -> 503 ;
504 [label="persons <= 3.0\nentropy = 0.971\nsamples = 10\nvalue = [0, 0, 4, 6]"] ;
502 -> 504 ;
505 [label="entropy = 0.0\nsamples = 4\nvalue = [0, 0, 0, 4]"] ;
504 -> 505 ;
506 [label="lug_boot <= 1.5\nentropy = 0.918\nsamples = 6\nvalue = [0, 0, 4, 2]"] ;
504 -> 506 ;
507 [label="buying <= 2.5\nentropy = 1.0\nsamples = 4\nvalue = [0, 0, 2, 2]"] ;
506 -> 507 ;
508 [label="persons <= 4.5\nentropy = 1.0\nsamples = 2\nvalue = [0, 0, 1, 1]"] ;
507 -> 508 ;
509 [label="entropy = 0.0\nsamples = 1\nvalue = [0, 0, 1, 0]"] ;
508 -> 509 ;
510 [label="entropy = 0.0\nsamples = 1\nvalue = [0, 0, 0, 1]"] ;
508 -> 510 ;
511 [label="persons <= 4.5\nentropy = 1.0\nsamples = 2\nvalue = [0, 0, 1, 1]"] ;
507 -> 511 ;
512 [label="entropy = 0.0\nsamples = 1\nvalue = [0, 0, 1, 0]"] ;
511 -> 512 ;
513 [label="entropy = 0.0\nsamples = 1\nvalue = [0, 0, 0, 1]"] ;
511 -> 513 ;
514 [label="entropy = 0.0\nsamples = 2\nvalue = [0, 0, 2, 0]"] ;
506 -> 514 ;
515 [label="safety <= 1.5\nentropy = 0.98\nsamples = 12\nvalue = [0, 0, 5, 7]"] ;
501 -> 515 ;
516 [label="entropy = 0.0\nsamples = 4\nvalue = [0, 0, 0, 4]"] ;
515 -> 516 ;
517 [label="safety <= 2.5\nentropy = 0.954\nsamples = 8\nvalue = [0, 0, 5, 3]"] ;
515 -> 517 ;
518 [label="buying <= 2.5\nentropy = 0.811\nsamples = 4\nvalue = [0, 0, 3, 1]"] ;
517 -> 518 ;
519 [label="persons <= 3.0\nentropy = 0.918\nsamples = 3\nvalue = [0, 0, 2, 1]"] ;
518 -> 519 ;
520 [label="entropy = 0.0\nsamples = 1\nvalue = [0, 0, 0, 1]"] ;
519 -> 520 ;
521 [label="entropy = 0.0\nsamples = 2\nvalue = [0, 0, 2, 0]"] ;
519 -> 521 ;
522 [label="entropy = 0.0\nsamples = 1\nvalue = [0, 0, 1, 0]"] ;
518 -> 522 ;
523 [label="persons <= 3.0\nentropy = 1.0\nsamples = 4\nvalue = [0, 0, 2, 2]"] ;
517 -> 523 ;
524 [label="entropy = 0.0\nsamples = 2\nvalue = [0, 0, 0, 2]"] ;
523 -> 524 ;
525 [label="entropy = 0.0\nsamples = 2\nvalue = [0, 0, 2, 0]"] ;
523 -> 525 ;
526 [label="entropy = 0.0\nsamples = 24\nvalue = [0, 0, 0, 24]"] ;
470 -> 526 ;
527 [label="persons <= 3.0\nentropy = 0.532\nsamples = 91\nvalue = [0, 0, 11, 80]"] ;
469 -> 527 ;
528 [label="entropy = 0.0\nsamples = 32\nvalue = [0, 0, 0, 32]"] ;
527 -> 528 ;
529 [label="buying <= 2.5\nentropy = 0.694\nsamples = 59\nvalue = [0, 0, 11, 48]"] ;
527 -> 529 ;
530 [label="safety <= 2.5\nentropy = 0.958\nsamples = 29\nvalue = [0, 0, 11, 18]"] ;
529 -> 530 ;
531 [label="lug_boot <= 2.5\nentropy = 0.61\nsamples = 20\nvalue = [0, 0, 3, 17]"] ;
530 -> 531 ;
532 [label="entropy = 0.0\nsamples = 14\nvalue = [0, 0, 0, 14]"] ;
531 -> 532 ;
533 [label="buying <= 1.5\nentropy = 1.0\nsamples = 6\nvalue = [0, 0, 3, 3]"] ;
531 -> 533 ;
534 [label="safety <= 1.5\nentropy = 0.918\nsamples = 3\nvalue = [0, 0, 2, 1]"] ;
533 -> 534 ;
535 [label="entropy = 0.0\nsamples = 1\nvalue = [0, 0, 0, 1]"] ;
534 -> 535 ;
536 [label="entropy = 0.0\nsamples = 2\nvalue = [0, 0, 2, 0]"] ;
534 -> 536 ;
537 [label="safety <= 1.5\nentropy = 0.918\nsamples = 3\nvalue = [0, 0, 1, 2]"] ;
533 -> 537 ;
538 [label="entropy = 0.0\nsamples = 2\nvalue = [0, 0, 0, 2]"] ;
537 -> 538 ;
539 [label="entropy = 0.0\nsamples = 1\nvalue = [0, 0, 1, 0]"] ;
537 -> 539 ;
540 [label="buying <= 1.5\nentropy = 0.503\nsamples = 9\nvalue = [0, 0, 8, 1]"] ;
530 -> 540 ;
541 [label="entropy = 0.0\nsamples = 3\nvalue = [0, 0, 3, 0]"] ;
540 -> 541 ;
542 [label="persons <= 4.5\nentropy = 0.65\nsamples = 6\nvalue = [0, 0, 5, 1]"] ;
540 -> 542 ;
543 [label="entropy = 0.0\nsamples = 3\nvalue = [0, 0, 3, 0]"] ;
542 -> 543 ;
544 [label="lug_boot <= 1.5\nentropy = 0.918\nsamples = 3\nvalue = [0, 0, 2, 1]"] ;
542 -> 544 ;
545 [label="entropy = 0.0\nsamples = 1\nvalue = [0, 0, 0, 1]"] ;
544 -> 545 ;
546 [label="entropy = 0.0\nsamples = 2\nvalue = [0, 0, 2, 0]"] ;
544 -> 546 ;
547 [label="entropy = 0.0\nsamples = 30\nvalue = [0, 0, 0, 30]"] ;
529 -> 547 ;
548 [label="doors <= 3.5\nentropy = 0.874\nsamples = 588\nvalue = [11, 0, 125, 452]"] ;
468 -> 548 ;
549 [label="persons <= 3.0\nentropy = 0.829\nsamples = 196\nvalue = [3, 0, 39, 154]"] ;
548 -> 549 ;
550 [label="entropy = 0.0\nsamples = 68\nvalue = [0, 0, 0, 68]"] ;
549 -> 550 ;
551 [label="lug_boot <= 1.5\nentropy = 1.035\nsamples = 128\nvalue = [3, 0, 39, 86]"] ;
549 -> 551 ;
552 [label="safety <= 2.5\nentropy = 0.782\nsamples = 43\nvalue = [0, 0, 10, 33]"] ;
551 -> 552 ;
553 [label="persons <= 4.5\nentropy = 0.362\nsamples = 29\nvalue = [0, 0, 2, 27]"] ;
552 -> 553 ;
554 [label="buying <= 1.5\nentropy = 0.371\nsamples = 14\nvalue = [0, 0, 1, 13]"] ;
553 -> 554 ;
555 [label="maint <= 3.5\nentropy = 0.811\nsamples = 4\nvalue = [0, 0, 1, 3]"] ;
554 -> 555 ;
556 [label="safety <= 1.5\nentropy = 1.0\nsamples = 2\nvalue = [0, 0, 1, 1]"] ;
555 -> 556 ;
557 [label="entropy = 0.0\nsamples = 1\nvalue = [0, 0, 0, 1]"] ;
556 -> 557 ;
558 [label="entropy = 0.0\nsamples = 1\nvalue = [0, 0, 1, 0]"] ;
556 -> 558 ;
559 [label="entropy = 0.0\nsamples = 2\nvalue = [0, 0, 0, 2]"] ;
555 -> 559 ;
560 [label="entropy = 0.0\nsamples = 10\nvalue = [0, 0, 0, 10]"] ;
554 -> 560 ;
561 [label="safety <= 1.5\nentropy = 0.353\nsamples = 15\nvalue = [0, 0, 1, 14]"] ;
553 -> 561 ;
562 [label="entropy = 0.0\nsamples = 7\nvalue = [0, 0, 0, 7]"] ;
561 -> 562 ;
563 [label="buying <= 1.5\nentropy = 0.544\nsamples = 8\nvalue = [0, 0, 1, 7]"] ;
561 -> 563 ;
564 [label="maint <= 3.5\nentropy = 1.0\nsamples = 2\nvalue = [0, 0, 1, 1]"] ;
563 -> 564 ;
565 [label="entropy = 0.0\nsamples = 1\nvalue = [0, 0, 1, 0]"] ;
564 -> 565 ;
566 [label="entropy = 0.0\nsamples = 1\nvalue = [0, 0, 0, 1]"] ;
564 -> 566 ;
567 [label="entropy = 0.0\nsamples = 6\nvalue = [0, 0, 0, 6]"] ;
563 -> 567 ;
568 [label="buying <= 2.5\nentropy = 0.985\nsamples = 14\nvalue = [0, 0, 8, 6]"] ;
552 -> 568 ;
569 [label="entropy = 0.0\nsamples = 6\nvalue = [0, 0, 6, 0]"] ;
568 -> 569 ;
570 [label="buying <= 3.5\nentropy = 0.811\nsamples = 8\nvalue = [0, 0, 2, 6]"] ;
568 -> 570 ;
571 [label="persons <= 4.5\nentropy = 1.0\nsamples = 4\nvalue = [0, 0, 2, 2]"] ;
570 -> 571 ;
572 [label="maint <= 3.5\nentropy = 1.0\nsamples = 2\nvalue = [0, 0, 1, 1]"] ;
571 -> 572 ;
573 [label="entropy = 0.0\nsamples = 1\nvalue = [0, 0, 1, 0]"] ;
572 -> 573 ;
574 [label="entropy = 0.0\nsamples = 1\nvalue = [0, 0, 0, 1]"] ;
572 -> 574 ;
575 [label="maint <= 3.5\nentropy = 1.0\nsamples = 2\nvalue = [0, 0, 1, 1]"] ;
571 -> 575 ;
576 [label="entropy = 0.0\nsamples = 1\nvalue = [0, 0, 1, 0]"] ;
575 -> 576 ;
577 [label="entropy = 0.0\nsamples = 1\nvalue = [0, 0, 0, 1]"] ;
575 -> 577 ;
578 [label="entropy = 0.0\nsamples = 4\nvalue = [0, 0, 0, 4]"] ;
570 -> 578 ;
579 [label="persons <= 4.5\nentropy = 1.124\nsamples = 85\nvalue = [3, 0, 29, 53]"] ;
551 -> 579 ;
580 [label="maint <= 3.5\nentropy = 1.014\nsamples = 42\nvalue = [1, 0, 12, 29]"] ;
579 -> 580 ;
581 [label="lug_boot <= 2.5\nentropy = 1.201\nsamples = 21\nvalue = [1, 0, 8, 12]"] ;
580 -> 581 ;
582 [label="buying <= 3.5\nentropy = 0.918\nsamples = 9\nvalue = [0, 0, 3, 6]"] ;
581 -> 582 ;
583 [label="safety <= 2.5\nentropy = 0.985\nsamples = 7\nvalue = [0, 0, 3, 4]"] ;
582 -> 583 ;
584 [label="entropy = 0.0\nsamples = 4\nvalue = [0, 0, 0, 4]"] ;
583 -> 584 ;
585 [label="entropy = 0.0\nsamples = 3\nvalue = [0, 0, 3, 0]"] ;
583 -> 585 ;
586 [label="entropy = 0.0\nsamples = 2\nvalue = [0, 0, 0, 2]"] ;
582 -> 586 ;
587 [label="buying <= 3.5\nentropy = 1.325\nsamples = 12\nvalue = [1, 0, 5, 6]"] ;
581 -> 587 ;
588 [label="buying <= 1.5\nentropy = 1.352\nsamples = 9\nvalue = [1, 0, 5, 3]"] ;
587 -> 588 ;
589 [label="safety <= 1.5\nentropy = 1.585\nsamples = 3\nvalue = [1, 0, 1, 1]"] ;
588 -> 589 ;
590 [label="entropy = 0.0\nsamples = 1\nvalue = [0, 0, 0, 1]"] ;
589 -> 590 ;
591 [label="safety <= 2.5\nentropy = 1.0\nsamples = 2\nvalue = [1, 0, 1, 0]"] ;
589 -> 591 ;
592 [label="entropy = 0.0\nsamples = 1\nvalue = [0, 0, 1, 0]"] ;
591 -> 592 ;
593 [label="entropy = 0.0\nsamples = 1\nvalue = [1, 0, 0, 0]"] ;
591 -> 593 ;
594 [label="safety <= 1.5\nentropy = 0.918\nsamples = 6\nvalue = [0, 0, 4, 2]"] ;
588 -> 594 ;
595 [label="entropy = 0.0\nsamples = 2\nvalue = [0, 0, 0, 2]"] ;
594 -> 595 ;
596 [label="entropy = 0.0\nsamples = 4\nvalue = [0, 0, 4, 0]"] ;
594 -> 596 ;
597 [label="entropy = 0.0\nsamples = 3\nvalue = [0, 0, 0, 3]"] ;
587 -> 597 ;
598 [label="safety <= 1.5\nentropy = 0.702\nsamples = 21\nvalue = [0, 0, 4, 17]"] ;
580 -> 598 ;
599 [label="entropy = 0.0\nsamples = 8\nvalue = [0, 0, 0, 8]"] ;
598 -> 599 ;
600 [label="lug_boot <= 2.5\nentropy = 0.89\nsamples = 13\nvalue = [0, 0, 4, 9]"] ;
598 -> 600 ;
601 [label="safety <= 2.5\nentropy = 0.65\nsamples = 6\nvalue = [0, 0, 1, 5]"] ;
600 -> 601 ;
602 [label="entropy = 0.0\nsamples = 3\nvalue = [0, 0, 0, 3]"] ;
601 -> 602 ;
603 [label="buying <= 2.0\nentropy = 0.918\nsamples = 3\nvalue = [0, 0, 1, 2]"] ;
601 -> 603 ;
604 [label="entropy = 0.0\nsamples = 1\nvalue = [0, 0, 1, 0]"] ;
603 -> 604 ;
605 [label="entropy = 0.0\nsamples = 2\nvalue = [0, 0, 0, 2]"] ;
603 -> 605 ;
606 [label="buying <= 2.5\nentropy = 0.985\nsamples = 7\nvalue = [0, 0, 3, 4]"] ;
600 -> 606 ;
607 [label="entropy = 0.0\nsamples = 3\nvalue = [0, 0, 3, 0]"] ;
606 -> 607 ;
608 [label="entropy = 0.0\nsamples = 4\nvalue = [0, 0, 0, 4]"] ;
606 -> 608 ;
609 [label="maint <= 3.5\nentropy = 1.205\nsamples = 43\nvalue = [2, 0, 17, 24]"] ;
579 -> 609 ;
610 [label="lug_boot <= 2.5\nentropy = 1.338\nsamples = 23\nvalue = [2, 0, 10, 11]"] ;
609 -> 610 ;
611 [label="buying <= 3.5\nentropy = 1.325\nsamples = 12\nvalue = [1, 0, 5, 6]"] ;
610 -> 611 ;
612 [label="buying <= 1.5\nentropy = 1.352\nsamples = 9\nvalue = [1, 0, 5, 3]"] ;
611 -> 612 ;
613 [label="safety <= 1.5\nentropy = 1.585\nsamples = 3\nvalue = [1, 0, 1, 1]"] ;
612 -> 613 ;
614 [label="entropy = 0.0\nsamples = 1\nvalue = [0, 0, 0, 1]"] ;
613 -> 614 ;
615 [label="safety <= 2.5\nentropy = 1.0\nsamples = 2\nvalue = [1, 0, 1, 0]"] ;
613 -> 615 ;
616 [label="entropy = 0.0\nsamples = 1\nvalue = [0, 0, 1, 0]"] ;
615 -> 616 ;
617 [label="entropy = 0.0\nsamples = 1\nvalue = [1, 0, 0, 0]"] ;
615 -> 617 ;
618 [label="buying <= 2.5\nentropy = 0.918\nsamples = 6\nvalue = [0, 0, 4, 2]"] ;
612 -> 618 ;
619 [label="safety <= 1.5\nentropy = 0.918\nsamples = 3\nvalue = [0, 0, 2, 1]"] ;
618 -> 619 ;
620 [label="entropy = 0.0\nsamples = 1\nvalue = [0, 0, 0, 1]"] ;
619 -> 620 ;
621 [label="entropy = 0.0\nsamples = 2\nvalue = [0, 0, 2, 0]"] ;
619 -> 621 ;
622 [label="safety <= 1.5\nentropy = 0.918\nsamples = 3\nvalue = [0, 0, 2, 1]"] ;
618 -> 622 ;
623 [label="entropy = 0.0\nsamples = 1\nvalue = [0, 0, 0, 1]"] ;
622 -> 623 ;
624 [label="entropy = 0.0\nsamples = 2\nvalue = [0, 0, 2, 0]"] ;
622 -> 624 ;
625 [label="entropy = 0.0\nsamples = 3\nvalue = [0, 0, 0, 3]"] ;
611 -> 625 ;
626 [label="buying <= 3.5\nentropy = 1.349\nsamples = 11\nvalue = [1, 0, 5, 5]"] ;
610 -> 626 ;
627 [label="buying <= 1.5\nentropy = 1.299\nsamples = 8\nvalue = [1, 0, 5, 2]"] ;
626 -> 627 ;
628 [label="safety <= 2.5\nentropy = 1.0\nsamples = 2\nvalue = [1, 0, 1, 0]"] ;
627 -> 628 ;
629 [label="entropy = 0.0\nsamples = 1\nvalue = [0, 0, 1, 0]"] ;
628 -> 629 ;
630 [label="entropy = 0.0\nsamples = 1\nvalue = [1, 0, 0, 0]"] ;
628 -> 630 ;
631 [label="buying <= 2.5\nentropy = 0.918\nsamples = 6\nvalue = [0, 0, 4, 2]"] ;
627 -> 631 ;
632 [label="safety <= 1.5\nentropy = 0.918\nsamples = 3\nvalue = [0, 0, 2, 1]"] ;
631 -> 632 ;
633 [label="entropy = 0.0\nsamples = 1\nvalue = [0, 0, 0, 1]"] ;
632 -> 633 ;
634 [label="entropy = 0.0\nsamples = 2\nvalue = [0, 0, 2, 0]"] ;
632 -> 634 ;
635 [label="safety <= 1.5\nentropy = 0.918\nsamples = 3\nvalue = [0, 0, 2, 1]"] ;
631 -> 635 ;
636 [label="entropy = 0.0\nsamples = 1\nvalue = [0, 0, 0, 1]"] ;
635 -> 636 ;
637 [label="entropy = 0.0\nsamples = 2\nvalue = [0, 0, 2, 0]"] ;
635 -> 637 ;
638 [label="entropy = 0.0\nsamples = 3\nvalue = [0, 0, 0, 3]"] ;
626 -> 638 ;
639 [label="safety <= 1.5\nentropy = 0.934\nsamples = 20\nvalue = [0, 0, 7, 13]"] ;
609 -> 639 ;
640 [label="entropy = 0.0\nsamples = 5\nvalue = [0, 0, 0, 5]"] ;
639 -> 640 ;
641 [label="safety <= 2.5\nentropy = 0.997\nsamples = 15\nvalue = [0, 0, 7, 8]"] ;
639 -> 641 ;
642 [label="lug_boot <= 2.5\nentropy = 1.0\nsamples = 8\nvalue = [0, 0, 4, 4]"] ;
641 -> 642 ;
643 [label="buying <= 2.5\nentropy = 1.0\nsamples = 4\nvalue = [0, 0, 2, 2]"] ;
642 -> 643 ;
644 [label="entropy = 0.0\nsamples = 2\nvalue = [0, 0, 2, 0]"] ;
643 -> 644 ;
645 [label="entropy = 0.0\nsamples = 2\nvalue = [0, 0, 0, 2]"] ;
643 -> 645 ;
646 [label="buying <= 2.5\nentropy = 1.0\nsamples = 4\nvalue = [0, 0, 2, 2]"] ;
642 -> 646 ;
647 [label="entropy = 0.0\nsamples = 2\nvalue = [0, 0, 2, 0]"] ;
646 -> 647 ;
648 [label="entropy = 0.0\nsamples = 2\nvalue = [0, 0, 0, 2]"] ;
646 -> 648 ;
649 [label="lug_boot <= 2.5\nentropy = 0.985\nsamples = 7\nvalue = [0, 0, 3, 4]"] ;
641 -> 649 ;
650 [label="buying <= 2.0\nentropy = 0.918\nsamples = 3\nvalue = [0, 0, 1, 2]"] ;
649 -> 650 ;
651 [label="entropy = 0.0\nsamples = 1\nvalue = [0, 0, 1, 0]"] ;
650 -> 651 ;
652 [label="entropy = 0.0\nsamples = 2\nvalue = [0, 0, 0, 2]"] ;
650 -> 652 ;
653 [label="buying <= 2.5\nentropy = 1.0\nsamples = 4\nvalue = [0, 0, 2, 2]"] ;
649 -> 653 ;
654 [label="entropy = 0.0\nsamples = 2\nvalue = [0, 0, 2, 0]"] ;
653 -> 654 ;
655 [label="entropy = 0.0\nsamples = 2\nvalue = [0, 0, 0, 2]"] ;
653 -> 655 ;
656 [label="doors <= 4.5\nentropy = 0.895\nsamples = 392\nvalue = [8, 0, 86, 298]"] ;
548 -> 656 ;
657 [label="persons <= 3.0\nentropy = 0.903\nsamples = 193\nvalue = [4, 0, 43, 146]"] ;
656 -> 657 ;
658 [label="entropy = 0.0\nsamples = 62\nvalue = [0, 0, 0, 62]"] ;
657 -> 658 ;
659 [label="lug_boot <= 1.5\nentropy = 1.092\nsamples = 131\nvalue = [4, 0, 43, 84]"] ;
657 -> 659 ;
660 [label="buying <= 3.5\nentropy = 0.82\nsamples = 47\nvalue = [0, 0, 12, 35]"] ;
659 -> 660 ;
661 [label="maint <= 3.5\nentropy = 0.928\nsamples = 35\nvalue = [0, 0, 12, 23]"] ;
660 -> 661 ;
662 [label="persons <= 4.5\nentropy = 0.991\nsamples = 18\nvalue = [0, 0, 8, 10]"] ;
661 -> 662 ;
663 [label="safety <= 2.5\nentropy = 0.991\nsamples = 9\nvalue = [0, 0, 4, 5]"] ;
662 -> 663 ;
664 [label="safety <= 1.5\nentropy = 0.65\nsamples = 6\nvalue = [0, 0, 1, 5]"] ;
663 -> 664 ;
665 [label="entropy = 0.0\nsamples = 3\nvalue = [0, 0, 0, 3]"] ;
664 -> 665 ;
666 [label="buying <= 1.5\nentropy = 0.918\nsamples = 3\nvalue = [0, 0, 1, 2]"] ;
664 -> 666 ;
667 [label="entropy = 0.0\nsamples = 1\nvalue = [0, 0, 1, 0]"] ;
666 -> 667 ;
668 [label="entropy = 0.0\nsamples = 2\nvalue = [0, 0, 0, 2]"] ;
666 -> 668 ;
669 [label="entropy = 0.0\nsamples = 3\nvalue = [0, 0, 3, 0]"] ;
663 -> 669 ;
670 [label="safety <= 2.5\nentropy = 0.991\nsamples = 9\nvalue = [0, 0, 4, 5]"] ;
662 -> 670 ;
671 [label="safety <= 1.5\nentropy = 0.65\nsamples = 6\nvalue = [0, 0, 1, 5]"] ;
670 -> 671 ;
672 [label="entropy = 0.0\nsamples = 3\nvalue = [0, 0, 0, 3]"] ;
671 -> 672 ;
673 [label="buying <= 1.5\nentropy = 0.918\nsamples = 3\nvalue = [0, 0, 1, 2]"] ;
671 -> 673 ;
674 [label="entropy = 0.0\nsamples = 1\nvalue = [0, 0, 1, 0]"] ;
673 -> 674 ;
675 [label="entropy = 0.0\nsamples = 2\nvalue = [0, 0, 0, 2]"] ;
673 -> 675 ;
676 [label="entropy = 0.0\nsamples = 3\nvalue = [0, 0, 3, 0]"] ;
670 -> 676 ;
677 [label="buying <= 2.5\nentropy = 0.787\nsamples = 17\nvalue = [0, 0, 4, 13]"] ;
661 -> 677 ;
678 [label="safety <= 2.5\nentropy = 0.946\nsamples = 11\nvalue = [0, 0, 4, 7]"] ;
677 -> 678 ;
679 [label="entropy = 0.0\nsamples = 7\nvalue = [0, 0, 0, 7]"] ;
678 -> 679 ;
680 [label="entropy = 0.0\nsamples = 4\nvalue = [0, 0, 4, 0]"] ;
678 -> 680 ;
681 [label="entropy = 0.0\nsamples = 6\nvalue = [0, 0, 0, 6]"] ;
677 -> 681 ;
682 [label="entropy = 0.0\nsamples = 12\nvalue = [0, 0, 0, 12]"] ;
660 -> 682 ;
683 [label="persons <= 4.5\nentropy = 1.193\nsamples = 84\nvalue = [4, 0, 31, 49]"] ;
659 -> 683 ;
684 [label="lug_boot <= 2.5\nentropy = 1.175\nsamples = 43\nvalue = [2, 0, 15, 26]"] ;
683 -> 684 ;
685 [label="buying <= 3.5\nentropy = 1.166\nsamples = 21\nvalue = [1, 0, 7, 13]"] ;
684 -> 685 ;
686 [label="maint <= 3.5\nentropy = 1.272\nsamples = 16\nvalue = [1, 0, 7, 8]"] ;
685 -> 686 ;
687 [label="safety <= 1.5\nentropy = 1.352\nsamples = 9\nvalue = [1, 0, 5, 3]"] ;
686 -> 687 ;
688 [label="entropy = 0.0\nsamples = 3\nvalue = [0, 0, 0, 3]"] ;
687 -> 688 ;
689 [label="buying <= 1.5\nentropy = 0.65\nsamples = 6\nvalue = [1, 0, 5, 0]"] ;
687 -> 689 ;
690 [label="safety <= 2.5\nentropy = 1.0\nsamples = 2\nvalue = [1, 0, 1, 0]"] ;
689 -> 690 ;
691 [label="entropy = 0.0\nsamples = 1\nvalue = [0, 0, 1, 0]"] ;
690 -> 691 ;
692 [label="entropy = 0.0\nsamples = 1\nvalue = [1, 0, 0, 0]"] ;
690 -> 692 ;
693 [label="entropy = 0.0\nsamples = 4\nvalue = [0, 0, 4, 0]"] ;
689 -> 693 ;
694 [label="buying <= 2.5\nentropy = 0.863\nsamples = 7\nvalue = [0, 0, 2, 5]"] ;
686 -> 694 ;
695 [label="buying <= 1.5\nentropy = 1.0\nsamples = 4\nvalue = [0, 0, 2, 2]"] ;
694 -> 695 ;
696 [label="safety <= 2.0\nentropy = 1.0\nsamples = 2\nvalue = [0, 0, 1, 1]"] ;
695 -> 696 ;
697 [label="entropy = 0.0\nsamples = 1\nvalue = [0, 0, 0, 1]"] ;
696 -> 697 ;
698 [label="entropy = 0.0\nsamples = 1\nvalue = [0, 0, 1, 0]"] ;
696 -> 698 ;
699 [label="safety <= 2.0\nentropy = 1.0\nsamples = 2\nvalue = [0, 0, 1, 1]"] ;
695 -> 699 ;
700 [label="entropy = 0.0\nsamples = 1\nvalue = [0, 0, 0, 1]"] ;
699 -> 700 ;
701 [label="entropy = 0.0\nsamples = 1\nvalue = [0, 0, 1, 0]"] ;
699 -> 701 ;
702 [label="entropy = 0.0\nsamples = 3\nvalue = [0, 0, 0, 3]"] ;
694 -> 702 ;
703 [label="entropy = 0.0\nsamples = 5\nvalue = [0, 0, 0, 5]"] ;
685 -> 703 ;
704 [label="safety <= 1.5\nentropy = 1.182\nsamples = 22\nvalue = [1, 0, 8, 13]"] ;
684 -> 704 ;
705 [label="entropy = 0.0\nsamples = 7\nvalue = [0, 0, 0, 7]"] ;
704 -> 705 ;
706 [label="safety <= 2.5\nentropy = 1.273\nsamples = 15\nvalue = [1, 0, 8, 6]"] ;
704 -> 706 ;
707 [label="buying <= 2.5\nentropy = 0.954\nsamples = 8\nvalue = [0, 0, 5, 3]"] ;
706 -> 707 ;
708 [label="entropy = 0.0\nsamples = 4\nvalue = [0, 0, 4, 0]"] ;
707 -> 708 ;
709 [label="maint <= 3.5\nentropy = 0.811\nsamples = 4\nvalue = [0, 0, 1, 3]"] ;
707 -> 709 ;
710 [label="buying <= 3.5\nentropy = 1.0\nsamples = 2\nvalue = [0, 0, 1, 1]"] ;
709 -> 710 ;
711 [label="entropy = 0.0\nsamples = 1\nvalue = [0, 0, 1, 0]"] ;
710 -> 711 ;
712 [label="entropy = 0.0\nsamples = 1\nvalue = [0, 0, 0, 1]"] ;
710 -> 712 ;
713 [label="entropy = 0.0\nsamples = 2\nvalue = [0, 0, 0, 2]"] ;
709 -> 713 ;
714 [label="buying <= 2.5\nentropy = 1.449\nsamples = 7\nvalue = [1, 0, 3, 3]"] ;
706 -> 714 ;
715 [label="maint <= 3.5\nentropy = 0.918\nsamples = 3\nvalue = [1, 0, 2, 0]"] ;
714 -> 715 ;
716 [label="buying <= 1.5\nentropy = 1.0\nsamples = 2\nvalue = [1, 0, 1, 0]"] ;
715 -> 716 ;
717 [label="entropy = 0.0\nsamples = 1\nvalue = [1, 0, 0, 0]"] ;
716 -> 717 ;
718 [label="entropy = 0.0\nsamples = 1\nvalue = [0, 0, 1, 0]"] ;
716 -> 718 ;
719 [label="entropy = 0.0\nsamples = 1\nvalue = [0, 0, 1, 0]"] ;
715 -> 719 ;
720 [label="maint <= 3.5\nentropy = 0.811\nsamples = 4\nvalue = [0, 0, 1, 3]"] ;
714 -> 720 ;
721 [label="buying <= 3.5\nentropy = 1.0\nsamples = 2\nvalue = [0, 0, 1, 1]"] ;
720 -> 721 ;
722 [label="entropy = 0.0\nsamples = 1\nvalue = [0, 0, 1, 0]"] ;
721 -> 722 ;
723 [label="entropy = 0.0\nsamples = 1\nvalue = [0, 0, 0, 1]"] ;
721 -> 723 ;
724 [label="entropy = 0.0\nsamples = 2\nvalue = [0, 0, 0, 2]"] ;
720 -> 724 ;
725 [label="safety <= 1.5\nentropy = 1.21\nsamples = 41\nvalue = [2, 0, 16, 23]"] ;
683 -> 725 ;
726 [label="entropy = 0.0\nsamples = 14\nvalue = [0, 0, 0, 14]"] ;
725 -> 726 ;
727 [label="safety <= 2.5\nentropy = 1.254\nsamples = 27\nvalue = [2, 0, 16, 9]"] ;
725 -> 727 ;
728 [label="buying <= 2.5\nentropy = 0.971\nsamples = 15\nvalue = [0, 0, 9, 6]"] ;
727 -> 728 ;
729 [label="entropy = 0.0\nsamples = 8\nvalue = [0, 0, 8, 0]"] ;
728 -> 729 ;
730 [label="lug_boot <= 2.5\nentropy = 0.592\nsamples = 7\nvalue = [0, 0, 1, 6]"] ;
728 -> 730 ;
731 [label="entropy = 0.0\nsamples = 3\nvalue = [0, 0, 0, 3]"] ;
730 -> 731 ;
732 [label="maint <= 3.5\nentropy = 0.811\nsamples = 4\nvalue = [0, 0, 1, 3]"] ;
730 -> 732 ;
733 [label="buying <= 3.5\nentropy = 1.0\nsamples = 2\nvalue = [0, 0, 1, 1]"] ;
732 -> 733 ;
734 [label="entropy = 0.0\nsamples = 1\nvalue = [0, 0, 1, 0]"] ;
733 -> 734 ;
735 [label="entropy = 0.0\nsamples = 1\nvalue = [0, 0, 0, 1]"] ;
733 -> 735 ;
736 [label="entropy = 0.0\nsamples = 2\nvalue = [0, 0, 0, 2]"] ;
732 -> 736 ;
737 [label="maint <= 3.5\nentropy = 1.384\nsamples = 12\nvalue = [2, 0, 7, 3]"] ;
727 -> 737 ;
738 [label="lug_boot <= 2.5\nentropy = 1.459\nsamples = 6\nvalue = [2, 0, 3, 1]"] ;
737 -> 738 ;
739 [label="buying <= 1.5\nentropy = 1.5\nsamples = 4\nvalue = [1, 0, 2, 1]"] ;
738 -> 739 ;
740 [label="entropy = 0.0\nsamples = 1\nvalue = [1, 0, 0, 0]"] ;
739 -> 740 ;
741 [label="buying <= 3.5\nentropy = 0.918\nsamples = 3\nvalue = [0, 0, 2, 1]"] ;
739 -> 741 ;
742 [label="entropy = 0.0\nsamples = 2\nvalue = [0, 0, 2, 0]"] ;
741 -> 742 ;
743 [label="entropy = 0.0\nsamples = 1\nvalue = [0, 0, 0, 1]"] ;
741 -> 743 ;
744 [label="buying <= 1.5\nentropy = 1.0\nsamples = 2\nvalue = [1, 0, 1, 0]"] ;
738 -> 744 ;
745 [label="entropy = 0.0\nsamples = 1\nvalue = [1, 0, 0, 0]"] ;
744 -> 745 ;
746 [label="entropy = 0.0\nsamples = 1\nvalue = [0, 0, 1, 0]"] ;
744 -> 746 ;
747 [label="lug_boot <= 2.5\nentropy = 0.918\nsamples = 6\nvalue = [0, 0, 4, 2]"] ;
737 -> 747 ;
748 [label="buying <= 2.5\nentropy = 0.918\nsamples = 3\nvalue = [0, 0, 2, 1]"] ;
747 -> 748 ;
749 [label="entropy = 0.0\nsamples = 2\nvalue = [0, 0, 2, 0]"] ;
748 -> 749 ;
750 [label="entropy = 0.0\nsamples = 1\nvalue = [0, 0, 0, 1]"] ;
748 -> 750 ;
751 [label="buying <= 3.0\nentropy = 0.918\nsamples = 3\nvalue = [0, 0, 2, 1]"] ;
747 -> 751 ;
752 [label="entropy = 0.0\nsamples = 2\nvalue = [0, 0, 2, 0]"] ;
751 -> 752 ;
753 [label="entropy = 0.0\nsamples = 1\nvalue = [0, 0, 0, 1]"] ;
751 -> 753 ;
754 [label="maint <= 3.5\nentropy = 0.888\nsamples = 199\nvalue = [4, 0, 43, 152]"] ;
656 -> 754 ;
755 [label="persons <= 3.0\nentropy = 1.03\nsamples = 104\nvalue = [4, 0, 26, 74]"] ;
754 -> 755 ;
756 [label="entropy = 0.0\nsamples = 35\nvalue = [0, 0, 0, 35]"] ;
755 -> 756 ;
757 [label="lug_boot <= 1.5\nentropy = 1.234\nsamples = 69\nvalue = [4, 0, 26, 39]"] ;
755 -> 757 ;
758 [label="persons <= 4.5\nentropy = 0.887\nsamples = 23\nvalue = [0, 0, 7, 16]"] ;
757 -> 758 ;
759 [label="safety <= 2.5\nentropy = 0.918\nsamples = 12\nvalue = [0, 0, 4, 8]"] ;
758 -> 759 ;
760 [label="safety <= 1.5\nentropy = 0.544\nsamples = 8\nvalue = [0, 0, 1, 7]"] ;
759 -> 760 ;
761 [label="entropy = 0.0\nsamples = 4\nvalue = [0, 0, 0, 4]"] ;
760 -> 761 ;
762 [label="buying <= 1.5\nentropy = 0.811\nsamples = 4\nvalue = [0, 0, 1, 3]"] ;
760 -> 762 ;
763 [label="entropy = 0.0\nsamples = 1\nvalue = [0, 0, 1, 0]"] ;
762 -> 763 ;
764 [label="entropy = 0.0\nsamples = 3\nvalue = [0, 0, 0, 3]"] ;
762 -> 764 ;
765 [label="buying <= 3.5\nentropy = 0.811\nsamples = 4\nvalue = [0, 0, 3, 1]"] ;
759 -> 765 ;
766 [label="entropy = 0.0\nsamples = 3\nvalue = [0, 0, 3, 0]"] ;
765 -> 766 ;
767 [label="entropy = 0.0\nsamples = 1\nvalue = [0, 0, 0, 1]"] ;
765 -> 767 ;
768 [label="buying <= 3.5\nentropy = 0.845\nsamples = 11\nvalue = [0, 0, 3, 8]"] ;
758 -> 768 ;
769 [label="buying <= 1.5\nentropy = 0.954\nsamples = 8\nvalue = [0, 0, 3, 5]"] ;
768 -> 769 ;
770 [label="safety <= 2.0\nentropy = 1.0\nsamples = 2\nvalue = [0, 0, 1, 1]"] ;
769 -> 770 ;
771 [label="entropy = 0.0\nsamples = 1\nvalue = [0, 0, 0, 1]"] ;
770 -> 771 ;
772 [label="entropy = 0.0\nsamples = 1\nvalue = [0, 0, 1, 0]"] ;
770 -> 772 ;
773 [label="buying <= 2.5\nentropy = 0.918\nsamples = 6\nvalue = [0, 0, 2, 4]"] ;
769 -> 773 ;
774 [label="safety <= 2.5\nentropy = 0.918\nsamples = 3\nvalue = [0, 0, 1, 2]"] ;
773 -> 774 ;
775 [label="entropy = 0.0\nsamples = 2\nvalue = [0, 0, 0, 2]"] ;
774 -> 775 ;
776 [label="entropy = 0.0\nsamples = 1\nvalue = [0, 0, 1, 0]"] ;
774 -> 776 ;
777 [label="safety <= 2.5\nentropy = 0.918\nsamples = 3\nvalue = [0, 0, 1, 2]"] ;
773 -> 777 ;
778 [label="entropy = 0.0\nsamples = 2\nvalue = [0, 0, 0, 2]"] ;
777 -> 778 ;
779 [label="entropy = 0.0\nsamples = 1\nvalue = [0, 0, 1, 0]"] ;
777 -> 779 ;
780 [label="entropy = 0.0\nsamples = 3\nvalue = [0, 0, 0, 3]"] ;
768 -> 780 ;
781 [label="persons <= 4.5\nentropy = 1.333\nsamples = 46\nvalue = [4, 0, 19, 23]"] ;
757 -> 781 ;
782 [label="safety <= 1.5\nentropy = 1.325\nsamples = 24\nvalue = [2, 0, 10, 12]"] ;
781 -> 782 ;
783 [label="entropy = 0.0\nsamples = 8\nvalue = [0, 0, 0, 8]"] ;
782 -> 783 ;
784 [label="lug_boot <= 2.5\nentropy = 1.299\nsamples = 16\nvalue = [2, 0, 10, 4]"] ;
782 -> 784 ;
785 [label="buying <= 3.5\nentropy = 1.299\nsamples = 8\nvalue = [1, 0, 5, 2]"] ;
784 -> 785 ;
786 [label="buying <= 1.5\nentropy = 0.65\nsamples = 6\nvalue = [1, 0, 5, 0]"] ;
785 -> 786 ;
787 [label="safety <= 2.5\nentropy = 1.0\nsamples = 2\nvalue = [1, 0, 1, 0]"] ;
786 -> 787 ;
788 [label="entropy = 0.0\nsamples = 1\nvalue = [0, 0, 1, 0]"] ;
787 -> 788 ;
789 [label="entropy = 0.0\nsamples = 1\nvalue = [1, 0, 0, 0]"] ;
787 -> 789 ;
790 [label="entropy = 0.0\nsamples = 4\nvalue = [0, 0, 4, 0]"] ;
786 -> 790 ;
791 [label="entropy = 0.0\nsamples = 2\nvalue = [0, 0, 0, 2]"] ;
785 -> 791 ;
792 [label="buying <= 3.5\nentropy = 1.299\nsamples = 8\nvalue = [1, 0, 5, 2]"] ;
784 -> 792 ;
793 [label="buying <= 1.5\nentropy = 0.65\nsamples = 6\nvalue = [1, 0, 5, 0]"] ;
792 -> 793 ;
794 [label="safety <= 2.5\nentropy = 1.0\nsamples = 2\nvalue = [1, 0, 1, 0]"] ;
793 -> 794 ;
795 [label="entropy = 0.0\nsamples = 1\nvalue = [0, 0, 1, 0]"] ;
794 -> 795 ;
796 [label="entropy = 0.0\nsamples = 1\nvalue = [1, 0, 0, 0]"] ;
794 -> 796 ;
797 [label="entropy = 0.0\nsamples = 4\nvalue = [0, 0, 4, 0]"] ;
793 -> 797 ;
798 [label="entropy = 0.0\nsamples = 2\nvalue = [0, 0, 0, 2]"] ;
792 -> 798 ;
799 [label="lug_boot <= 2.5\nentropy = 1.342\nsamples = 22\nvalue = [2, 0, 9, 11]"] ;
781 -> 799 ;
800 [label="buying <= 3.5\nentropy = 1.361\nsamples = 10\nvalue = [1, 0, 4, 5]"] ;
799 -> 800 ;
801 [label="safety <= 1.5\nentropy = 1.379\nsamples = 7\nvalue = [1, 0, 4, 2]"] ;
800 -> 801 ;
802 [label="entropy = 0.0\nsamples = 2\nvalue = [0, 0, 0, 2]"] ;
801 -> 802 ;
803 [label="buying <= 1.5\nentropy = 0.722\nsamples = 5\nvalue = [1, 0, 4, 0]"] ;
801 -> 803 ;
804 [label="safety <= 2.5\nentropy = 1.0\nsamples = 2\nvalue = [1, 0, 1, 0]"] ;
803 -> 804 ;
805 [label="entropy = 0.0\nsamples = 1\nvalue = [0, 0, 1, 0]"] ;
804 -> 805 ;
806 [label="entropy = 0.0\nsamples = 1\nvalue = [1, 0, 0, 0]"] ;
804 -> 806 ;
807 [label="entropy = 0.0\nsamples = 3\nvalue = [0, 0, 3, 0]"] ;
803 -> 807 ;
808 [label="entropy = 0.0\nsamples = 3\nvalue = [0, 0, 0, 3]"] ;
800 -> 808 ;
809 [label="buying <= 3.5\nentropy = 1.325\nsamples = 12\nvalue = [1, 0, 5, 6]"] ;
799 -> 809 ;
810 [label="safety <= 1.5\nentropy = 1.352\nsamples = 9\nvalue = [1, 0, 5, 3]"] ;
809 -> 810 ;
811 [label="entropy = 0.0\nsamples = 3\nvalue = [0, 0, 0, 3]"] ;
810 -> 811 ;
812 [label="buying <= 1.5\nentropy = 0.65\nsamples = 6\nvalue = [1, 0, 5, 0]"] ;
810 -> 812 ;
813 [label="safety <= 2.5\nentropy = 1.0\nsamples = 2\nvalue = [1, 0, 1, 0]"] ;
812 -> 813 ;
814 [label="entropy = 0.0\nsamples = 1\nvalue = [0, 0, 1, 0]"] ;
813 -> 814 ;
815 [label="entropy = 0.0\nsamples = 1\nvalue = [1, 0, 0, 0]"] ;
813 -> 815 ;
816 [label="entropy = 0.0\nsamples = 4\nvalue = [0, 0, 4, 0]"] ;
812 -> 816 ;
817 [label="entropy = 0.0\nsamples = 3\nvalue = [0, 0, 0, 3]"] ;
809 -> 817 ;
818 [label="lug_boot <= 1.5\nentropy = 0.678\nsamples = 95\nvalue = [0, 0, 17, 78]"] ;
754 -> 818 ;
819 [label="safety <= 2.5\nentropy = 0.469\nsamples = 30\nvalue = [0, 0, 3, 27]"] ;
818 -> 819 ;
820 [label="entropy = 0.0\nsamples = 21\nvalue = [0, 0, 0, 21]"] ;
819 -> 820 ;
821 [label="persons <= 3.0\nentropy = 0.918\nsamples = 9\nvalue = [0, 0, 3, 6]"] ;
819 -> 821 ;
822 [label="entropy = 0.0\nsamples = 3\nvalue = [0, 0, 0, 3]"] ;
821 -> 822 ;
823 [label="buying <= 2.5\nentropy = 1.0\nsamples = 6\nvalue = [0, 0, 3, 3]"] ;
821 -> 823 ;
824 [label="entropy = 0.0\nsamples = 3\nvalue = [0, 0, 3, 0]"] ;
823 -> 824 ;
825 [label="entropy = 0.0\nsamples = 3\nvalue = [0, 0, 0, 3]"] ;
823 -> 825 ;
826 [label="persons <= 3.0\nentropy = 0.752\nsamples = 65\nvalue = [0, 0, 14, 51]"] ;
818 -> 826 ;
827 [label="entropy = 0.0\nsamples = 22\nvalue = [0, 0, 0, 22]"] ;
826 -> 827 ;
828 [label="lug_boot <= 2.5\nentropy = 0.91\nsamples = 43\nvalue = [0, 0, 14, 29]"] ;
826 -> 828 ;
829 [label="persons <= 4.5\nentropy = 0.881\nsamples = 20\nvalue = [0, 0, 6, 14]"] ;
828 -> 829 ;
830 [label="buying <= 2.5\nentropy = 0.845\nsamples = 11\nvalue = [0, 0, 3, 8]"] ;
829 -> 830 ;
831 [label="safety <= 1.5\nentropy = 0.971\nsamples = 5\nvalue = [0, 0, 3, 2]"] ;
830 -> 831 ;
832 [label="entropy = 0.0\nsamples = 2\nvalue = [0, 0, 0, 2]"] ;
831 -> 832 ;
833 [label="entropy = 0.0\nsamples = 3\nvalue = [0, 0, 3, 0]"] ;
831 -> 833 ;
834 [label="entropy = 0.0\nsamples = 6\nvalue = [0, 0, 0, 6]"] ;
830 -> 834 ;
835 [label="buying <= 2.5\nentropy = 0.918\nsamples = 9\nvalue = [0, 0, 3, 6]"] ;
829 -> 835 ;
836 [label="safety <= 1.5\nentropy = 0.811\nsamples = 4\nvalue = [0, 0, 3, 1]"] ;
835 -> 836 ;
837 [label="entropy = 0.0\nsamples = 1\nvalue = [0, 0, 0, 1]"] ;
836 -> 837 ;
838 [label="entropy = 0.0\nsamples = 3\nvalue = [0, 0, 3, 0]"] ;
836 -> 838 ;
839 [label="entropy = 0.0\nsamples = 5\nvalue = [0, 0, 0, 5]"] ;
835 -> 839 ;
840 [label="buying <= 2.5\nentropy = 0.932\nsamples = 23\nvalue = [0, 0, 8, 15]"] ;
828 -> 840 ;
841 [label="persons <= 4.5\nentropy = 0.918\nsamples = 12\nvalue = [0, 0, 8, 4]"] ;
840 -> 841 ;
842 [label="buying <= 1.5\nentropy = 0.918\nsamples = 6\nvalue = [0, 0, 4, 2]"] ;
841 -> 842 ;
843 [label="safety <= 1.5\nentropy = 0.918\nsamples = 3\nvalue = [0, 0, 2, 1]"] ;
842 -> 843 ;
844 [label="entropy = 0.0\nsamples = 1\nvalue = [0, 0, 0, 1]"] ;
843 -> 844 ;
845 [label="entropy = 0.0\nsamples = 2\nvalue = [0, 0, 2, 0]"] ;
843 -> 845 ;
846 [label="safety <= 1.5\nentropy = 0.918\nsamples = 3\nvalue = [0, 0, 2, 1]"] ;
842 -> 846 ;
847 [label="entropy = 0.0\nsamples = 1\nvalue = [0, 0, 0, 1]"] ;
846 -> 847 ;
848 [label="entropy = 0.0\nsamples = 2\nvalue = [0, 0, 2, 0]"] ;
846 -> 848 ;
849 [label="buying <= 1.5\nentropy = 0.918\nsamples = 6\nvalue = [0, 0, 4, 2]"] ;
841 -> 849 ;
850 [label="safety <= 1.5\nentropy = 0.918\nsamples = 3\nvalue = [0, 0, 2, 1]"] ;
849 -> 850 ;
851 [label="entropy = 0.0\nsamples = 1\nvalue = [0, 0, 0, 1]"] ;
850 -> 851 ;
852 [label="entropy = 0.0\nsamples = 2\nvalue = [0, 0, 2, 0]"] ;
850 -> 852 ;
853 [label="safety <= 1.5\nentropy = 0.918\nsamples = 3\nvalue = [0, 0, 2, 1]"] ;
849 -> 853 ;
854 [label="entropy = 0.0\nsamples = 1\nvalue = [0, 0, 0, 1]"] ;
853 -> 854 ;
855 [label="entropy = 0.0\nsamples = 2\nvalue = [0, 0, 2, 0]"] ;
853 -> 855 ;
856 [label="entropy = 0.0\nsamples = 11\nvalue = [0, 0, 0, 11]"] ;
840 -> 856 ;
}